tree
version=v3
num_class=1
num_tree_per_iteration=1
label_index=0
max_feature_idx=199
objective=regression
feature_names=MaxEStateIndex MinEStateIndex MaxAbsEStateIndex MinAbsEStateIndex qed MolWt HeavyAtomMolWt ExactMolWt NumValenceElectrons NumRadicalElectrons MaxPartialCharge MinPartialCharge MaxAbsPartialCharge MinAbsPartialCharge FpDensityMorgan1 FpDensityMorgan2 FpDensityMorgan3 BalabanJ BertzCT Chi0 Chi0n Chi0v Chi1 Chi1n Chi1v Chi2n Chi2v Chi3n Chi3v Chi4n Chi4v HallKierAlpha Ipc Kappa1 Kappa2 Kappa3 LabuteASA PEOE_VSA1 PEOE_VSA10 PEOE_VSA11 PEOE_VSA12 PEOE_VSA13 PEOE_VSA14 PEOE_VSA2 PEOE_VSA3 PEOE_VSA4 PEOE_VSA5 PEOE_VSA6 PEOE_VSA7 PEOE_VSA8 PEOE_VSA9 SMR_VSA1 SMR_VSA10 SMR_VSA2 SMR_VSA3 SMR_VSA4 SMR_VSA5 SMR_VSA6 SMR_VSA7 SMR_VSA8 SMR_VSA9 SlogP_VSA1 SlogP_VSA10 SlogP_VSA11 SlogP_VSA12 SlogP_VSA2 SlogP_VSA3 SlogP_VSA4 SlogP_VSA5 SlogP_VSA6 SlogP_VSA7 SlogP_VSA8 SlogP_VSA9 TPSA EState_VSA1 EState_VSA10 EState_VSA11 EState_VSA2 EState_VSA3 EState_VSA4 EState_VSA5 EState_VSA6 EState_VSA7 EState_VSA8 EState_VSA9 VSA_EState1 VSA_EState10 VSA_EState2 VSA_EState3 VSA_EState4 VSA_EState5 VSA_EState6 VSA_EState7 VSA_EState8 VSA_EState9 FractionCSP3 HeavyAtomCount NHOHCount NOCount NumAliphaticCarbocycles NumAliphaticHeterocycles NumAliphaticRings NumAromaticCarbocycles NumAromaticHeterocycles NumAromaticRings NumHAcceptors NumHDonors NumHeteroatoms NumRotatableBonds NumSaturatedCarbocycles NumSaturatedHeterocycles NumSaturatedRings RingCount MolLogP MolMR fr_Al_COO fr_Al_OH fr_Al_OH_noTert fr_ArN fr_Ar_COO fr_Ar_N fr_Ar_NH fr_Ar_OH fr_COO fr_COO2 fr_C_O fr_C_O_noCOO fr_C_S fr_HOCCN fr_Imine fr_NH0 fr_NH1 fr_NH2 fr_N_O fr_Ndealkylation1 fr_Ndealkylation2 fr_Nhpyrrole fr_SH fr_aldehyde fr_alkyl_carbamate fr_alkyl_halide fr_allylic_oxid fr_amide fr_amidine fr_aniline fr_aryl_methyl fr_azide fr_azo fr_barbitur fr_benzene fr_benzodiazepine fr_bicyclic fr_diazo fr_dihydropyridine fr_epoxide fr_ester fr_ether fr_furan fr_guanido fr_halogen fr_hdrzine fr_hdrzone fr_imidazole fr_imide fr_isocyan fr_isothiocyan fr_ketone fr_ketone_Topliss fr_lactam fr_lactone fr_methoxy fr_morpholine fr_nitrile fr_nitro fr_nitro_arom fr_nitro_arom_nonortho fr_nitroso fr_oxazole fr_oxime fr_para_hydroxylation fr_phenol fr_phenol_noOrthoHbond fr_phos_acid fr_phos_ester fr_piperdine fr_piperzine fr_priamide fr_prisulfonamd fr_pyridine fr_quatN fr_sulfide fr_sulfonamd fr_sulfone fr_term_acetylene fr_tetrazole fr_thiazole fr_thiocyan fr_thiophene fr_unbrch_alkane fr_urea
feature_infos=[0:17.359482290046412] [-7.65625:4] [0:17.359482290046412] [0:7.3524999999999991] [0.030533280509986924:0.943451125691676] [16.042999999999999:991.13400000000001] [12.010999999999999:916.54199999999992] [16.031300127999998:990.48243014800039] [8:392] none [-1:2] [-1:1] [0.044726775471347478:2] [0.00015639560064143485:1] [0.1891891891891892:2] [0.27777777777777779:2.75] [0.33333333333333331:3.625] [-2.6666657179262761e-06:6.0273586268332151] [0:2616.4738051662589] [0:50.61142625940429] [0:42.250619312690922] [0:42.250619312690922] [0:32.969947806904486] [0:25.35959485665429] [0:39.797958971132701] [0:22.203555393020807] [0:54.329594250180321] [0:18.35340485482137] [0:59.718059981126359] [0:14.597210408523026] [0:76.901812372182846] [-4.8900000000000015:3.48] [0:88447430.274333388] [0:54.336495569458201] [0:194.94429126369468] [-27.040000000000035:9507.9599999999991] [8.7392510278295497:413.01319563957719] [0:88.590513137766806] [0:70.956280155787411] [0:35.578100791806044] [0:35.690035685918971] [0:32.361104323582317] [0:223.70175990062657] [0:45.25181025913411] [0:32.696923258819076] [0:52.684980572097857] [0:92.807519121860125] [0:122.49852641235884] [0:130.94022707362174] [0:90.936314335731311] [0:79.282583574155012] [0:99.439277333469946] [0:139.21127868279015] [0:21.637134423166088] [0:45.540561335320042] [0:50.243660954864858] [0:234.49211459487893] [0:105.7101114322067] [0:137.011864690794] none [0:40.071258076990965] [0:90.181545942942165] [0:58.439580784653216] [0:28.747559166419524] [0:139.21127868279015] [0:188.32524720820422] [0:85.609578550031529] [0:50.243660954864858] [0:181.79466774898685] [0:121.02558488243238] [0:130.94022707362174] [0:53.862242144647958] none [0:351.55000000000001] [0:139.82231957664033] [0:60.030367895012922] [0:8.7808300953496392] [0:143.60956002474694] [0:128.70815876534232] [0:77.440493943862734] [0:122.68458675394577] [0:72.808968809995619] [0:90.995506026924204] [0:130.94022707362174] [0:139.21127868279015] none [-10.263297458457902:79.994907407407382] none none none none none none [-3.8389506172839511:150.77416666666667] [-44.115000000000002:169.91666666666663] [0:1] [1:70] [0:13] [0:20] [0:6] [0:5] [0:9] [0:6] [0:3] [0:6] [0:20] [0:10] [0:24] [0:28] [0:6] [0:4] [0:8] [0:9] [-6.8447000000000005:10.95699999999999] [6.6699999999999999:240.34679999999923] [0:3] [0:8] [0:8] [0:3] [0:6] [0:8] [0:4] [0:5] [0:6] [0:6] [0:6] [0:6] [0:2] [0:1] [0:2] [0:8] [0:10] [0:3] [0:2] [0:2] [0:2] [0:4] none [0:1] none [0:12] [0:9] [0:6] [0:1] [0:10] [0:4] none none [0:1] [0:6] [0:1] [0:12] none none [0:2] [0:6] [0:12] [0:2] [0:4] [0:12] [0:3] [0:2] [0:2] [0:2] none [0:1] [0:3] [0:2] [0:1] [0:2] [0:4] [0:2] [0:3] [0:4] [0:4] [0:3] [0:2] none [0:2] [0:4] [0:4] [0:4] [0:1] [0:1] [0:3] [0:1] [0:2] none [0:3] [0:1] [0:2] [0:2] [0:2] [0:3] none [0:1] none [0:3] [0:17] [0:2]
tree_sizes=2659 2775 2780 2781 2786 2790 2777 2787 2805 2814 2793 2793 2812 2806 2809 2805 2820 2805 2818 2827 2822 2839 2822 2800 2832 2828 2815 2839 2821 2854 2846 2826 2828 2831 2831 2843 2829 2848 2842 2824 2843 2845 2837 2840 2848 2838 2826 2835 2834 2838 2830 2848 2853 2852 2842 2843 2837 2861 2839 2848 2846 2841 2873 2869 2840 2848 2808 2817 2824 2801 2858 2825 2838 2844 2833 2743 2342 2854 1983 2836 2742 2848 2759 2573 2513 2821 2832 2838 2067 2546 2049 2836 1546 2849 2491 2236 2832 1548 1620 2841 2756 2835 937 2845 2828 1259 2829 1118 2836 1262 2841 2848 1544 2842 1460 2848 1532 2318 1173 1282 2834 1275 2857 1724 1977 1196 2654 2829 1184 2135 1340 1877 2853 1704 2875 1196 2822 1030 2654 1196 1449 2314 2404 2860 2168 2855 2228 2823 1701 2240 2869 2875 2840 2838 2222 2571 2154 1310 2151 1877 1302 2764 2079 2768 1616 2060 2852 2841 1905 2855 2250 1460 2002 2331 2392 2851 1216 2329 2856 1915 2151 2673 2160 1998 1403 2683 2698 1718 1821 2885 1276 2863 2864 1276 1720 2533 2851 2596 2842 2884 2054 2867 2524 1178 2770 2867 2781 1011 2862 2424 1984 2410 2865 2704 2873 2514 2879 2531 2343 2843 2898 2909 2849 2336 2593 2850 1113 2852 2863 2863 2232 1824 2848 2795 2878 2330 1553 1627 2010 2549 1403 2844 2530 1841 2537 1905 2856 2893 2852 2881 2528 2864 2342 1209 2878 2066 2870 1189 2680 2881 2249 2870 2870 2890 2850 2864 2873 2902 931 2873 2865 2895 2875 1544 1189 2855 2851 2151 1821 1725 2676 2621 1104 2864 1123 1371 1011 2874 2886 2844 2891 2859 2898 2617 2872 2878 2897 2898 1014 1815 2879 2064 2870 2850 1024 2884 2843 2083 2911 2508 1973 2369 1458 2855 2884 2173 1804 925 1192 2880 2865 1367 2076 1023 2517 2090 2901 1492 2874 1568 1285 2855 2861 2868 935 2867 2711 2850 2874 2538 1427 2002 2872 2865 2886 930 2894 929 1023 1189 2890 2623 2874 1635 2583 1745 2871 1103 1015 2920 2781 1384 2885 2162 2864 2841 2907 2882 2862 2722 2533 2879 2612 2793 2552 2860 2885 2916 2623 2881 1726 2870 2689 2896 2854 1557 2852 2894 2877 2921 2874 2511 2167 1917 2810 1203 2769 2887 1107 2792 2835 1652 2898 2853 1108 2434 2890 2436 2845 2885 2840 2815 1802 2786 2875 2007 2876 1916 2346 1469 2705 1729 2420 2855 2886 2911 2904 2862 2186 2559 2430 2853 2914 2601 2858 2166 1371 2864 1637 1904 2864 2628 2801 2871 2861 2862 2870 2902 2453 2780 2092 2894 2775 1724 2531 2860 2336 1486 2597 2703 2890 2880 2867 2715 2862 2871 2090 2690 2860 2876 2880 2868 1947 2894 1452 1983 2866 2895 2342 2789 2614 2882 1984 2866 2856 2909 1549 2867 2426 2876 2115 1816 2357 1900 2851 1634 1820 2859 843 1913 2630 2253 1021 2860 2890 2888 1998 2879 2256 2881 2613 2604 2868 2856 1538 2099 2845 2875 1278 1118 2893 2863 2850 2261 2902 2517 2872 2690 2283 2273 2875 2884 2878 2884 2598 2863 2889 2913 1286 2875 2334 2861 2881 2863 1285 1019 2178 2844 1120 1021 2891 1200 2867 2003 2446 2269 1731 1998 2891 1023 1197 930 2815 2605 2518 933 2869 2897 2168 1118 2858 1915 2897 1643 2891 2877 2875 2868 1986 2739 1120 2851 2865 2846 2563 2096 2806 848 1645 1751 2879 2855 1106 2884 2286 2876 2872 2873 2457 2886 2864 2910 2877 1282 2864 1210 2837 1885 2877 2910 2858 2890 2872 2901 2887 1565 1828 2874 2857 1473 2912 2103 2699 2006 1310 2794 2881 1117 1735 1904 1892 2652 2898 2446 1542 1553 2874 2823 2901 1290 2264 2800 1293 2891 2881 2855 2904 1289 1840 2897 2883 2907 2346 2649 2883 2858 2895 1564 2730 1200 2882 1195 2734 2885 1208 1200 2010 1386 2452 2810 2885 2352 1038 1909 2875 2259 2866 2791 1749 2279 2876 2877 2186 1661 1113 2354 2888 2859 2893 1205 2899 2900 2895 2109 1658 2890 2876 2331 2864 2911 1203 2821 2642 2338 2910 2886 1373 2888 2873 2386 2913 2815 2880 2876 2106 1748 2171 2260 2904 2369 2633 2358 2899 2533 2893 2207 2380 2907 1835 2888 2876 2893 2912 2882 2883 2083 2882 2880 2372 1826 935 2897 2892 1660 1561 2372 2888 2885 2916 2428 2379 2884 2881 1949 2272 2889 2909 1301 2888 2910 2388 1200 2914 2930 2818 2923 2647 1817 2459 2128 2917 844 2560 2916 2183 2460 2886 1478 2885 2913 2098 1923 2920 1293 2909 1033 2907 2287 2262 1565 2888 1370 1216 2108 1653 2948 2897 2601 1824 2898 2895 2282 2899 2459 2729 2007 2485 2706 2906 1918 2020 2905 2960 2916 2877 2867 2913 1204 1997 1382 2122 2278 2815 2196 1565 2007 2913 2894 2632 2890 2539 2885 2868 2909 2918 1383 1748 2730 2755 2657 2889 2913 2897 2905 2098 1304 1564 1740 2904 1661 2660 1292 2578 2900 2871 1033 1037 2550 2902 1774 2897 1925 2928 2919 2756 2913 2188 1831 2452 2897 2894 1852 2903 2367 2012 2902 2888 1041 2902 2017 2727 2885 2898 2893 1933 1849 2717 2925 2532 1925 2112 2883 1381 2708 2000 2919 2371 2917 2907 2885 949 2547 2641 2916 1113 2936 2885 2919 2901 2459 2896 2896 2457 2298 2894 1126 2926 1923 2918 1031 2734 2918 1735 1202 2908 1382 2897 1469 852 1202 2632 2917 2889 2922 2371 2742 2955 1198 2899 2098 2902 2890 2922 1304 2892 1486 2557 2924 2918 2938 2920 2915 2921 2531 2916 1924 2890 2931 1745 2918 1943 1665 2910 2916 2911 2825 2906 2844 2917 2110 2850 2920 2724 2908 2888 2931 2016 1762 2927 2878 2448 1023 1655 2901 1125 1021 2921 2024 2748 2910 2354 2907 1745 2731 2903 2916 2900 2895 2404 1294

Tree=0
num_leaves=31
num_cat=0
split_feature=113 113 113 113 113 113 113 47 12 113 31 107 56 113 113 12 113 52 115 1 113 14 113 70 37 10 31 93 93 49
split_gain=9759.12 2674.56 1924.63 406.124 376.548 343.078 261.707 78.2384 70.4752 65.0497 62.7828 60.338 58.6435 43.3246 41.8718 36.5201 35.2004 33.341 44.3179 30.1339 28.1335 26.1362 26.0527 23.7298 20.5632 19.9838 19.0232 26.9211 18.1405 17.6128
threshold=2.1534000000000009 4.3827900000000026 0.68716999999999984 2.9825000000000013 5.7430500000000047 -0.32369999999999899 1.5051000000000001 82.807236245327474 0.11086790151215811 3.5970500000000034 -0.62499999999999989 1.0000000180025095e-35 41.644518620754575 1.0420500000000004 5.076700000000006 0.39355861895005823 1.8171000000000002 5.9919819964821617 1.0000000180025095e-35 -2.7586379991811536 2.5682000000000014 1.348913043478261 -0.074629999999999905 25.243643071858102 15.531665166275443 0.3798334197218558 -0.20499999999999999 0.80257875218347052 5.6403703703703725 5.3831434924653569
decision_type=2 2 2 2 2 2 2 2 8 2 2 2 2 2 2 10 2 2 2 2 2 2 2 2 2 8 2 2 2 2
left_child=2 3 5 11 14 10 13 23 -5 -10 21 -2 17 -4 25 -12 -8 18 -7 -16 -13 -1 -19 28 -23 -3 -17 -28 -6 -15
right_child=1 4 6 8 7 12 16 -9 9 -11 15 20 -14 29 19 26 -18 22 -20 -21 -22 24 -24 -25 -26 -27 27 -29 -30 -31
leaf_value=2.0052492484193403 2.2168680190482863 2.2713390363821948 2.0659575750892163 2.2510366714432393 2.3563617453530892 2.0222345917366464 2.1092930882211212 2.4501345170719517 2.19090905384027 2.2226315873257225 1.9806669311000278 2.1499419309462664 2.1088960981485365 2.1023154603582559 2.2511609814951261 1.886880639162714 2.1296582378716504 2.010880914316493 1.9492593225020429 2.3181252645839692 2.1681026541694175 1.9897111626045163 2.0481581590553728 2.3918467992432615 1.9506562162683987 2.2209984548804553 1.9787562173991839 1.8996101115740571 2.3056847869175687 2.083030392338145
leaf_weight=82 46 138 326 95 111 218 432 27 365 290 32 475 24 170 21 31 417 59 23 84 387 65 228 41 70 23 21 22 21 390
leaf_count=82 46 138 326 95 111 218 432 27 365 290 32 475 24 170 21 31 417 59 23 84 387 65 228 41 70 23 21 22 21 390
internal_value=2.13373 2.21331 2.06897 2.18356 2.31914 2.00851 2.09946 2.37097 2.21079 2.20495 1.96758 2.16107 2.03246 2.08045 2.28017 1.93604 2.1193 2.02898 2.01527 2.30473 2.1581 1.98298 2.04049 2.35862 1.96946 2.26415 1.91674 1.93826 2.3483 2.08888
internal_weight=0 2124 2610 1658 466 875 1735 200 750 655 323 908 552 886 266 106 849 528 241 105 862 217 287 173 135 161 74 43 132 560
internal_count=4734 2124 2610 1658 466 875 1735 200 750 655 323 908 552 886 266 106 849 528 241 105 862 217 287 173 135 161 74 43 132 560
shrinkage=1


Tree=1
num_leaves=31
num_cat=0
split_feature=113 113 113 113 113 113 113 47 12 113 113 12 31 113 0 56 12 115 113 94 113 14 37 31 70 26 61 4 49 49
split_gain=8807.61 2413.79 1738.36 366.527 339.834 329.683 204.19 71.4971 63.6038 58.7073 55.6759 54.8636 53.3702 47.7697 38.6951 37.3082 31.691 28.8022 26.9927 24.3349 23.7923 23.449 19.6023 17.7578 17.3644 17.0803 16.8613 16.4405 16.3115 15.981
threshold=2.1534000000000009 4.3827900000000026 0.44480000000000064 2.9825000000000013 5.7430500000000047 1.4073500000000003 -0.38554999999999989 78.459231259321157 0.11086790151215811 3.5970500000000034 0.99775000000000003 0.099985015888972253 -0.62499999999999989 1.8053500000000002 11.24616904882936 40.03024641254779 0.39355861895005823 1.0000000180025095e-35 4.8896000000000042 34.170518274439416 2.4534000000000007 1.3514705882352944 15.805746213959333 -1.5699999999999994 25.243643071858102 4.9872534249557026 12.989137323157715 0.36755536656744242 16.826552377734384 5.5511883720401718
decision_type=2 2 2 2 2 2 2 2 8 2 2 8 2 2 2 2 10 2 2 2 2 2 2 2 2 2 2 2 2 2
left_child=2 3 6 11 14 10 12 24 -5 25 19 -2 21 -7 18 17 -14 23 -3 -4 28 -1 -23 -8 -6 -10 -22 -18 -13 -12
right_child=1 4 5 8 7 13 15 -9 9 -11 29 20 16 -15 -16 -17 27 -19 -20 -21 26 22 -24 -25 -26 -27 -28 -29 -30 -31
leaf_value=-0.12353512878659406 0.07218247489382823 0.13387228530354617 -0.078811836435395022 0.11144290560170225 0.20119959822427483 -0.02652113518352588 -0.085843505336832937 0.28167427507313819 0.063614071554371293 0.084458074574840489 -0.031791001967348749 0.018385389764116421 -0.14621667901674906 -0.0043637757282042671 0.11493627697813745 -0.038653354961425072 -0.23916259499696585 -0.15411129256244749 0.17444195478427701 -0.054557347008187297 0.03159662161008555 -0.14092869579792022 -0.18102355356569644 -0.11138055117756834 0.24300443895401491 0.041731967037964252 -0.014175795783687915 -0.1892209009329478 -0.0078260441301082253 -0.052057686144123899
leaf_weight=79 60 82 303 95 125 544 93 44 210 290 139 271 30 440 102 20 26 32 82 157 480 70 54 254 31 155 21 45 76 324
leaf_count=79 60 82 303 95 125 544 93 44 210 290 139 271 30 440 102 20 26 32 82 157 480 70 54 254 31 155 21 45 76 324
internal_value=0 0.0756011 -0.0615236 0.047343 0.176142 -0.0367481 -0.128731 0.225384 0.0732098 0.0676645 -0.0582136 0.0259772 -0.159603 -0.0166134 0.139118 -0.10521 -0.189304 -0.108722 0.154157 -0.0705337 0.022708 -0.144825 -0.158389 -0.104536 0.209507 0.0543217 0.029678 -0.207509 0.0126446 -0.0459733
internal_weight=0 2124 2610 1658 466 1907 703 200 750 655 923 908 304 984 266 399 101 379 164 460 848 203 124 347 156 365 501 71 347 463
internal_count=4734 2124 2610 1658 466 1907 703 200 750 655 923 908 304 984 266 399 101 379 164 460 848 203 124 347 156 365 501 71 347 463
shrinkage=0.05


Tree=2
num_leaves=31
num_cat=0
split_feature=113 113 113 113 113 113 113 47 73 31 107 56 113 113 113 12 52 11 113 1 113 113 14 70 47 93 37 31 93 78
split_gain=7948.87 2178.44 1572.13 330.79 306.701 279.839 213.802 65.5193 57.9419 51.2029 50.0134 49.2278 41.4914 35.0571 34.5301 29.8266 28.8581 40.7843 28.4171 25.0301 23.5857 22.5579 21.3154 20.4517 18.384 17.0077 16.9945 16.9144 23.8236 16.3849
threshold=2.1534000000000009 4.3827900000000026 0.68716999999999984 2.9825000000000013 5.7430500000000047 -0.32369999999999899 1.5051000000000001 82.487203602127209 12.415000000000001 -0.62499999999999989 1.0000000180025095e-35 41.644518620754575 3.5970500000000034 5.076700000000006 1.0420500000000004 0.39355861895005823 5.9919819964821617 -0.47960678891750591 1.8171000000000002 -2.7586379991811536 2.5682000000000014 -0.074629999999999905 1.348913043478261 25.243643071858102 46.33276940059374 1.1728037603930466 15.531665166275443 -0.20499999999999999 0.80257875218347052 24.470827081357182
decision_type=2 2 2 2 2 2 2 2 2 2 2 2 2 2 2 10 2 10 2 2 2 2 2 2 2 2 2 2 2 2
left_child=2 3 5 10 13 9 14 23 -5 22 -2 16 -10 24 -4 -11 17 -7 -8 -15 -12 -18 -1 -6 -3 -16 -24 -17 -29 -22
right_child=1 4 6 8 7 11 18 -9 12 15 20 -13 -14 19 25 27 21 -19 -20 -21 29 -23 26 -25 -26 -27 -28 28 -30 -31
leaf_value=-0.11603528075828784 0.075476153583630273 0.10377885209223658 -0.061008097176537192 0.095416075195230196 0.19201364587643185 -0.14811644651451891 -0.021946423889447168 0.28093390541691937 0.050416333774866706 -0.13820637632161378 0.014502205695785387 -0.021426037140190604 0.077359803373249075 0.10581418673197429 -0.035772624046855349 -0.22413429483290642 -0.1114893698591297 -0.09700990244746209 -0.0036484161408046351 0.16684459022113257 0.033532135003139785 -0.076802353326051509 -0.12994555656726545 0.23259072390998284 0.1383033144287765 -0.056467052559231151 -0.16545022078922819 -0.13759108781814575 -0.21204493425109169 -0.012940654233098032
leaf_weight=82 46 97 326 168 128 49 432 31 330 32 475 24 252 21 431 31 59 192 417 84 367 228 65 41 64 129 70 21 22 20
leaf_count=82 46 97 326 168 128 49 432 31 330 32 475 24 252 21 431 31 59 192 417 84 367 228 65 41 64 129 70 21 22 20
internal_value=0 0.071821 -0.0584474 0.0449758 0.167335 -0.113091 -0.0308894 0.214115 0.0695493 -0.150056 0.0246783 -0.0914613 0.0620826 0.132162 -0.048071 -0.178539 -0.0946447 -0.107401 -0.0129591 0.154639 0.0219676 -0.0839331 -0.136142 0.201858 0.117503 -0.0405397 -0.148355 -0.195981 -0.175684 0.0311304
internal_weight=0 2124 2610 1658 466 875 1735 200 750 323 908 552 582 266 886 106 528 241 849 105 862 287 217 169 161 560 135 74 43 387
internal_count=4734 2124 2610 1658 466 875 1735 200 750 323 908 552 582 266 886 106 528 241 849 105 862 287 217 169 161 560 135 74 43 387
shrinkage=0.05


Tree=3
num_leaves=31
num_cat=0
split_feature=113 113 113 113 113 113 113 47 12 113 12 113 31 113 0 68 12 113 61 11 17 113 94 14 10 34 37 18 28 71
split_gain=7173.85 1966.05 1422.59 298.538 276.797 268.449 165.259 59.5632 53.3873 48.4587 45.3178 45.0543 43.4359 38.7186 32.5198 31.0856 25.8244 21.9653 20.6612 28.3991 20.5535 21.3448 20.2024 19.2113 18.9855 17.7405 16.3285 15.729 16.0857 15.3358
threshold=2.1534000000000009 4.3827900000000026 0.44480000000000064 2.9825000000000013 5.7430500000000047 1.4073500000000003 -0.38554999999999989 86.77564224193469 0.11086790151215811 3.5970500000000034 0.099985015888972253 0.83225000000000016 -0.62499999999999989 1.8053500000000002 11.24616904882936 30.123369121311466 0.39355861895005823 4.8896000000000042 9.8358387032957406 -0.47960678891750591 1.5220956475380854 2.6705500000000035 33.204665559124898 1.3514705882352944 0.13269057602930315 7.1429049298510625 15.805746213959333 668.58185950733991 6.1486914596663125 10.607644537483656
decision_type=2 2 2 2 2 2 2 2 8 2 8 2 2 2 2 2 10 2 2 8 2 2 2 2 8 2 2 2 2 2
left_child=2 3 6 10 14 11 12 24 -5 -10 -2 25 23 29 17 18 -14 -3 19 -8 -12 -22 -13 -1 -6 -4 -25 28 -11 -7
right_child=1 4 5 8 7 13 15 -9 9 27 20 22 16 -15 -16 -17 -18 -19 -20 -21 21 -23 -24 26 -26 -27 -28 -29 -30 -31
leaf_value=-0.11149405848376359 0.065438087421158961 0.12104240245208508 -0.071352025681546513 0.10109995277304398 0.21261283223693439 -0.021163297866037958 -0.14405576996505262 0.27730037371317545 0.048869017531508456 0.089921930702457659 -0.018835209764074535 -0.051774466886943787 -0.13199552536010742 -0.0039153418035262309 0.10338565216344947 -0.038734602571829507 -0.18732492520775595 0.15763950856720532 -0.080956755264297783 -0.099171332014750133 0.016609228860709903 0.034112584256448801 -0.03312758195802145 -0.12710602104663848 0.17934523175160091 -0.022642255797982219 -0.16369986136754355 0.058749436637323897 0.050227526277303695 -0.049964734747567602
leaf_weight=79 60 82 286 95 74 493 42 24 365 171 32 383 30 440 102 23 71 82 115 219 564 252 234 70 102 20 54 89 30 51
leaf_count=79 60 82 286 95 74 493 42 24 365 171 32 383 30 440 102 23 71 82 115 219 564 252 234 70 102 20 54 89 30 51
internal_value=0 0.06823 -0.0555251 0.042727 0.158968 -0.0331125 -0.116323 0.203409 0.0660718 0.0609914 0.0234444 -0.0524821 -0.144096 -0.0149436 0.125554 -0.0951624 -0.17089 0.139341 -0.0986141 -0.106394 0.0204732 0.0220147 -0.0447026 -0.130765 0.193333 -0.0681684 -0.143042 0.0762489 0.0839974 -0.0238634
internal_weight=0 2124 2610 1658 466 1907 703 200 750 655 908 923 304 984 266 399 101 164 376 261 848 816 617 203 176 306 124 290 201 544
internal_count=4734 2124 2610 1658 466 1907 703 200 750 655 908 923 304 984 266 399 101 164 376 261 848 816 617 203 176 306 124 290 201 544
shrinkage=0.05


Tree=4
num_leaves=31
num_cat=0
split_feature=113 113 113 113 113 113 113 113 47 31 113 10 0 113 113 68 0 12 49 95 94 61 97 43 61 14 31 93 12 37
split_gain=6474.4 1776.73 1283.89 319.211 242.275 192.641 149.59 60.6999 54.1541 41.7795 41.1291 37.5842 36.7205 35.4871 31.3949 28.3946 27.0824 24.3275 23.8581 23.3587 20.2086 18.5788 26.7858 18.5716 17.626 17.4678 15.1292 21.5786 14.892 14.6367
threshold=2.1534000000000009 4.5538500000000024 0.44480000000000064 3.295250000000002 1.4073500000000003 5.7430500000000047 -0.32369999999999899 2.6898500000000016 78.459231259321157 -0.62499999999999989 0.99775000000000003 0.013264596445055394 4.4002777777777782 1.7436500000000001 3.9015000000000022 28.828321664893569 11.24616904882936 0.39355861895005823 5.3535887576335766 0.80384615384615399 34.170518274439416 9.8358387032957406 2.5000000000000004 1.0000000180025095e-35 10.824233998174153 1.3514705882352944 -0.20499999999999999 0.80257875218347052 0.47971038692131057 15.531665166275443
decision_type=2 2 2 2 2 2 2 2 2 2 2 10 2 2 2 2 2 10 2 2 2 2 2 2 2 2 2 2 8 2
left_child=2 3 6 7 10 16 9 18 -7 25 20 -9 -5 -6 19 21 -3 -11 -2 -14 28 22 -8 -15 -13 -1 -19 -28 -4 -27
right_child=1 5 4 12 13 8 15 11 -10 17 -12 24 14 23 -16 -17 -18 26 -20 -21 -22 -23 -24 -25 -26 29 27 -29 -30 -31
leaf_value=-0.10510513342562176 0.031323953938713886 0.13846452626496999 -0.06324120873396169 0.10398594363580776 -0.024625106766456517 0.17942074585037354 -0.092924498997523752 0.083090539924476459 0.24222834625027401 -0.12482731626369059 -0.039337622334896016 0.03783170101609791 0.062764052490775407 0.0035676341177555771 0.082454052067293629 -0.031255140248686079 0.10140652755896251 -0.20363111918972387 0.010274579668067019 0.022981311801041283 -0.045888051021084855 -0.075113154301868268 -0.13799585295029176 -0.015015033917558013 -0.0091070317796298449 -0.11726394011424138 -0.1215551766611281 -0.19241414828733966 -0.093860783824261204 -0.15044620974975476
leaf_weight=84 193 134 256 79 446 156 213 46 44 32 463 420 260 274 205 20 78 31 445 43 157 108 39 264 21 65 21 22 47 68
leaf_count=84 193 134 256 79 446 156 213 46 44 32 463 420 260 274 205 20 78 31 445 43 157 108 39 264 21 65 21 22 47 68
internal_value=0 0.0648185 -0.0527488 0.0423848 -0.0314568 0.158038 -0.110507 0.0267893 0.193238 -0.135524 -0.049858 0.0400826 0.072274 -0.0141964 0.0673424 -0.0892423 0.12483 -0.161253 0.0166422 0.0571183 -0.060447 -0.0924638 -0.0998998 -0.005551 0.0355965 -0.122955 -0.177005 -0.157809 -0.0679908 -0.134229
internal_weight=0 2124 2610 1712 1907 412 703 1125 200 323 923 487 587 984 508 380 212 106 638 303 460 360 252 538 441 217 74 43 303 133
internal_count=4734 2124 2610 1712 1907 412 703 1125 200 323 923 487 587 984 508 380 212 106 638 303 460 360 252 538 441 217 74 43 303 133
shrinkage=0.05


Tree=5
num_leaves=31
num_cat=0
split_feature=113 113 113 113 113 113 113 1 11 33 47 73 107 33 113 11 50 40 113 10 66 113 188 17 43 47 18 10 0 6
split_gain=5843.15 1604.13 1161.32 245.928 244.413 225.677 127.804 59.3407 46.8272 80.853 46.7328 45.7377 38.6271 36.3612 33.3484 28.7679 26.34 24.9201 23.5493 23.4061 23.2572 22.8192 20.0362 18.6626 18.5925 18.302 17.1303 16.2636 15.3022 15.288
threshold=2.1534000000000009 4.3827900000000026 0.78975000000000017 -0.1663499999999993 2.9825000000000013 5.4462500000000036 1.5628500000000003 -2.6033279990236826 -0.47960678891750591 14.981832504601011 82.807236245327474 23.925000000000001 1.0000000180025095e-35 16.279164130212461 -1.4206000000000001 -0.47960678891750591 6.2351848815233613 11.701434156501199 3.5970500000000034 0.3798334197218558 4.7419427035088049 3.8301500000000033 1.0000000180025095e-35 1.5220956475380854 1.0000000180025095e-35 6.4998786532622548 640.7381145408873 0.031357420379682442 3.1500925925925936 136.13300000000001
decision_type=2 2 2 2 2 2 2 2 8 2 2 2 2 2 2 10 2 2 2 8 2 2 2 2 2 2 2 8 2 2
left_child=2 4 3 8 12 19 17 -7 9 -1 -9 21 -2 15 -10 16 -5 22 -13 -3 28 27 -4 -14 -25 -17 -15 -6 -8 -16
right_child=1 5 6 13 11 7 20 10 14 -11 -12 18 23 26 29 25 -18 -19 -20 -21 -22 -23 -24 24 -26 -27 -28 -29 -30 -31
leaf_value=-0.18728915251218359 0.065736350546712466 0.1149363754469217 -0.037261087100145716 -0.12499093115329743 0.090374780110284395 0.097666303955373318 0.032343032732605935 0.17652064766935124 -0.14995972109290789 -0.093884007125679 0.24476155823674697 0.041298324519808131 -0.018756854077946628 0.0029634735360741619 -0.12088915803997786 -0.079146686710890729 -0.06930540246622903 -0.0025826814366155305 0.063283375296741731 0.069996553045861873 -0.01969119555226281 0.098820512383072476 -0.065231872328690127 0.028066530058573819 0.013076642907021136 -0.057791614704241129 -0.056024550259280659 0.056751800890340182 -0.0046439406089597715 -0.094615583063298203
leaf_weight=65 46 196 750 54 51 21 30 186 53 36 29 281 32 20 97 299 35 48 215 34 329 81 70 392 438 151 32 122 412 129
leaf_count=65 46 196 750 54 51 21 30 186 53 36 29 281 32 20 97 299 35 48 215 34 329 81 70 392 438 151 32 122 412 129
internal_value=0 0.0615775 -0.0501114 -0.0934431 0.0385412 0.143539 -0.0244402 0.177889 -0.124824 -0.153996 0.185725 0.0596641 0.0210939 -0.0732658 -0.114264 -0.077118 -0.103092 -0.0375991 0.0508281 0.108293 -0.0096257 0.0769185 -0.0396488 0.0187116 0.0201562 -0.0719809 -0.0333368 0.0666638 -0.00213351 -0.105892
internal_weight=0 2124 2610 971 1658 466 1639 236 380 101 215 750 908 591 279 539 89 868 496 230 771 254 820 862 830 450 52 173 442 226
internal_count=4734 2124 2610 971 1658 466 1639 236 380 101 215 750 908 591 279 539 89 868 496 230 771 254 820 862 830 450 52 173 442 226
shrinkage=0.05


Tree=6
num_leaves=31
num_cat=0
split_feature=113 113 113 113 113 113 113 47 107 11 33 11 33 113 113 113 11 61 83 50 1 95 113 49 49 113 47 113 10 18
split_gain=5275.36 1296.71 1221.27 221.95 209.678 172.84 140.666 45.496 45.2442 42.2616 72.9698 34.7453 32.816 32.1596 30.097 27.6936 25.9631 24.7299 24.0311 23.7719 22.3042 22.2732 20.7 19.0305 18.0749 17.6996 17.084 16.2096 16.0957 15.4601
threshold=2.323500000000001 4.6043000000000038 0.78975000000000017 -0.1663499999999993 3.295250000000002 1.7436500000000001 5.7430500000000047 86.77564224193469 1.0000000180025095e-35 -0.47960678891750591 14.981832504601011 -0.1109420273768798 16.279164130212461 1.1681000000000001 -1.4206000000000001 3.9015000000000022 -0.47960678891750591 10.854581789010931 10.312696709103399 6.2351848815233613 -2.8291437153565129 0.83045977011494265 2.6898500000000016 5.6302454023764152 5.3831434924653569 1.0000000180025095e-35 6.4998786532622548 5.076700000000006 0.13269057602930315 640.7381145408873
decision_type=2 2 2 2 2 2 2 2 2 8 2 10 2 2 2 2 10 2 2 2 2 2 2 2 2 2 2 2 8 2
left_child=2 4 3 9 8 13 20 28 -2 10 -1 15 16 -4 -11 21 19 22 -7 -5 -3 -6 -10 -20 -15 -18 -27 -22 -8 -14
right_child=1 6 5 12 11 18 7 -9 17 14 -12 -13 29 24 -16 -17 25 -19 23 -21 27 -23 -24 -25 -26 26 -28 -29 -30 -31
leaf_value=-0.17792469611534706 0.072416869799296055 0.076602816255763179 -0.044346560441812323 -0.11874138428657144 0.056801170474162492 -0.0075419608548982072 0.18345266967206389 0.23908585608005525 0.01869534043033232 -0.14246173551622429 -0.089189807082422912 0.096733506824821236 0.002815299280919135 -0.013834509981759733 -0.10059767992202753 0.074934895868204773 -0.097768946834232498 -0.012187147694861606 0.03029529307487196 -0.065840132151331221 0.10587032239119976 0.016349735108834026 0.034698494235438998 0.0015139077514542279 -0.031161595713391544 -0.072523260870630935 -0.050916508356375359 0.13752416975441434 0.15282136674641689 -0.053223323047859594
leaf_weight=65 54 32 365 54 267 500 74 24 382 53 36 80 20 211 226 219 46 42 87 35 78 39 429 169 525 264 140 84 102 32
leaf_count=65 54 32 365 54 267 500 74 24 382 53 36 80 20 211 226 219 46 42 87 35 78 39 429 169 525 264 140 84 102 32
internal_value=0 0.0642925 -0.0433315 -0.0887709 0.04324 -0.0195718 0.145083 0.174507 0.028033 -0.118583 -0.146296 0.066038 -0.0696025 -0.032212 -0.10855 0.0613606 -0.0732621 0.0252232 -0.00116328 -0.0979375 0.114748 0.0516456 0.0271606 0.0112951 -0.0261942 -0.0683818 -0.0650358 0.122283 0.1657 -0.03167
internal_weight=0 1906 2828 971 1512 1857 394 200 907 380 101 605 591 1101 279 525 539 853 756 89 194 306 811 256 736 450 404 162 176 52
internal_count=4734 1906 2828 971 1512 1857 394 200 907 380 101 605 591 1101 279 525 539 853 756 89 194 306 811 256 736 450 404 162 176 52
shrinkage=0.05


Tree=7
num_leaves=31
num_cat=0
split_feature=113 113 113 113 113 113 113 107 47 73 113 31 56 113 113 0 115 11 97 61 94 31 113 14 31 106 18 70 56 113
split_gain=4766.02 1308.74 954.758 235.854 178.857 141.441 109.653 46.2251 41.5945 34.5858 33.9108 32.8351 29.9508 25.1195 22.6303 20.7511 20.529 18.8392 22.5391 18.6517 18.2235 17.2957 15.5467 14.6004 14.4611 16.3034 13.3966 13.3722 12.8725 12.8043
threshold=2.1534000000000009 4.5538500000000024 0.44480000000000064 3.1658000000000022 1.4530500000000004 5.7430500000000047 -0.55769999999999997 1.0000000180025095e-35 78.459231259321157 24.445000000000004 1.0420500000000004 -0.62499999999999989 41.644518620754575 2.5682000000000014 1.8171000000000002 11.24616904882936 1.0000000180025095e-35 -0.3255599736134191 2.5000000000000004 11.250091465705731 33.6668079176115 -1.5699999999999994 3.8301500000000033 1.3514705882352944 -0.16999999999999998 1.5000000000000002 339.22165220580933 25.243643071858102 34.446775527296843 3.9015000000000022
decision_type=2 2 2 2 2 2 2 2 2 2 2 2 2 2 2 2 2 8 2 2 2 2 2 2 2 2 2 2 2 2
left_child=2 3 6 7 10 15 11 -2 27 22 20 23 16 -9 -6 28 21 18 29 -15 -4 -8 -5 -1 -13 -26 -19 -7 -3 -11
right_child=1 5 4 9 14 8 12 13 -10 17 -12 24 -14 19 -16 -17 -18 26 -20 -21 -22 -23 -24 -25 25 -27 -28 -29 -30 -31
leaf_value=-0.091064296780179632 0.063923847235617101 0.11260816853395419 -0.057834471391929765 0.063779399411812918 -0.01820477448974683 0.14638143778443335 -0.061253250601014712 0.010779268096256267 0.20871607959270477 0.05303238420278085 -0.032333061423812696 -0.17126860916614534 -0.021398519369817917 0.028801854411007851 -0.0024871916297992932 0.086660838432801091 -0.11924627495663508 -0.0046537744998931888 0.011300884768366814 -0.016336407446457694 -0.037691270420055469 -0.085545059100638893 0.090132535219776877 -0.12001227477082499 -0.15915601166586082 -0.10251811847642617 0.041534539379421878 0.18306720795169953 0.15609788984060288 0.074009870072794068
leaf_weight=73 61 114 327 124 508 125 99 475 44 201 484 34 21 493 417 78 35 20 25 24 171 282 102 108 24 27 73 31 20 114
leaf_count=73 61 114 327 124 508 125 99 475 44 201 484 34 21 493 417 78 35 20 25 24 171 282 102 108 24 27 73 31 20 114
internal_value=0 0.0556131 -0.0452575 0.0363592 -0.0268964 0.135619 -0.0950649 0.0216778 0.165781 0.0598183 -0.0417579 -0.120376 -0.0796585 0.01908 -0.0111191 0.107164 -0.0825995 0.051543 0.0569975 0.0267065 -0.0509178 -0.079233 0.0756733 -0.108337 -0.14601 -0.129171 0.0316016 0.153672 0.119099 0.0606242
internal_weight=0 2124 2610 1712 1907 412 703 1053 200 659 982 266 437 992 925 212 416 433 340 517 498 381 226 181 85 51 93 156 134 315
internal_count=4734 2124 2610 1712 1907 412 703 1053 200 659 982 266 437 992 925 212 416 433 340 517 498 381 226 181 85 51 93 156 134 315
shrinkage=0.05


Tree=8
num_leaves=31
num_cat=0
split_feature=113 113 113 113 113 113 113 1 0 47 49 31 56 113 113 113 115 10 36 12 113 17 83 10 28 113 61 71 10 1
split_gain=4301.33 1182.32 861.669 180.46 167.066 161.715 99.328 47.6663 35.9692 35.2709 29.2551 28.8225 27.7851 27.2197 26.4994 23.9829 22.4089 18.9439 18.494 28.4977 17.3263 16.9773 16.2696 16.2014 16.1532 15.3433 14.1074 13.5542 15.6946 13.8669
threshold=2.1534000000000009 4.3827900000000026 0.44480000000000064 2.9825000000000013 5.4462500000000036 1.4073500000000003 -0.62670000000000003 -2.6033279990236826 4.2205324074074086 91.197877739091112 5.3535887576335766 -1.5549999999999999 41.644518620754575 3.5970500000000034 0.99775000000000003 1.8053500000000002 1.0000000180025095e-35 0.3798334197218558 102.94831629738913 0.480001414754962 -0.074629999999999905 1.4393938028386677 10.587221383447229 0.43257752654644149 3.396292559889694 2.4534000000000007 10.48172810349587 10.607644537483656 0.26897031622750095 -0.54139727451280473
decision_type=2 2 2 2 2 2 2 2 2 2 2 2 2 2 2 2 2 8 2 10 2 2 2 8 2 2 2 2 8 2
left_child=2 3 6 10 17 14 11 -6 -5 -9 -2 -1 16 23 22 27 20 -3 19 -13 -8 -12 -4 -10 -15 -23 -22 28 -7 -29
right_child=1 4 5 8 7 15 12 9 13 -11 21 18 -14 24 -16 -17 -18 -19 -20 -21 26 25 -24 -25 -26 -27 -28 29 -30 -31
leaf_value=-0.09226870604735965 0.032080931819258363 0.09884861235706402 -0.054325019885279095 0.078962152989784096 0.080852664120140527 -0.023648433640059696 -0.088980703688914475 0.15293811772771451 0.040351337890050056 0.21975825266404586 -0.02807858970761299 -0.11776196494316445 -0.021660934761166574 0.072960451951152402 -0.032140780127728981 -0.0027702993263532833 -0.11647425213375606 0.058418898065300554 -0.094818756548744262 -0.16582790998851552 -0.074459571352666204 0.004056366584063653 -0.032210878006379132 -0.0049058740603781887 0.048773726565048234 0.020212973465909261 -0.046694546213495683 -0.075467829275876294 -0.0056181156204492561 -0.022066914176027623
leaf_weight=85 264 196 351 101 21 282 153 193 339 22 25 78 22 114 463 440 37 34 33 51 183 240 109 21 175 379 61 20 211 31
leaf_count=85 264 196 351 101 21 282 153 193 339 22 25 78 22 114 463 440 37 34 33 51 183 240 109 21 175 379 61 20 211 31
internal_value=0 0.0528324 -0.0429946 0.0330554 0.123198 -0.0255516 -0.0903117 0.152753 0.0512055 0.159776 0.0180635 -0.115848 -0.0764794 0.0468859 -0.0405853 -0.0114498 -0.0792582 0.092872 -0.12822 -0.136765 -0.0757897 0.0123172 -0.0490849 0.0377113 0.0583145 0.0139487 -0.0675183 -0.0184701 -0.0159316 -0.0430084
internal_weight=0 2124 2610 1658 466 1907 703 236 750 215 908 247 456 649 923 984 434 230 162 129 397 644 460 360 289 619 244 544 493 51
internal_count=4734 2124 2610 1658 466 1907 703 236 750 215 908 247 456 649 923 984 434 230 162 129 397 644 460 360 289 619 244 544 493 51
shrinkage=0.05


Tree=9
num_leaves=31
num_cat=0
split_feature=113 113 113 113 113 113 113 113 107 11 33 52 12 68 47 11 113 49 40 26 73 95 61 113 115 180 188 113 1 83
split_gain=3885.59 958.559 901.946 194.596 164.978 126.186 60.0314 37.1178 35.3276 32.2323 58.9995 27.4189 31.1703 26.6379 25.9309 25.4166 25.3557 25.2316 22.2656 22.2606 20.7704 20.6427 20.2869 19.471 18.6735 17.0593 16.7327 16.1219 14.7144 14.4271
threshold=2.323500000000001 4.8896000000000042 0.78975000000000017 3.295250000000002 -0.1663499999999993 1.5628500000000003 6.1639900000000063 3.9015000000000022 1.0000000180025095e-35 -0.47960678891750591 14.981832504601011 7.9253167776932107 0.49612565981262752 68.587497567783672 91.197877739091112 -0.47960678891750591 -1.8705499999999973 5.3831434924653569 11.701434156501199 5.0216242848970216 28.640000000000004 0.84891304347826091 10.854581789010931 2.0017700000000005 1.0000000180025095e-35 1.0000000180025095e-35 1.0000000180025095e-35 2.6898500000000016 -2.7586379991811536 10.500325391990943
decision_type=2 2 2 2 2 2 2 2 2 8 2 2 10 2 2 10 2 2 2 2 2 2 2 2 2 2 2 2 2 2
left_child=2 3 4 8 9 18 13 19 -2 10 -1 15 -13 28 -8 24 -11 29 26 -5 -9 -21 25 -19 -6 27 -4 -10 -3 -7
right_child=1 6 5 7 11 17 14 20 22 16 -12 12 -14 -15 -16 -17 -18 23 -20 21 -22 -23 -24 -25 -26 -27 -28 -29 -30 -31
leaf_value=-0.15458312034606936 0.063269098930888709 0.071400644125130322 -0.030437800651784832 0.059704538252442443 -0.079875521634410071 -8.8110793644483108e-05 0.14872006804454985 0.084100865490916304 0.012878533549493809 -0.13922828347594648 -0.074793413449596211 -0.053285854651055634 0.011372382319532335 0.15955928619261142 0.2086989175705683 -0.062990561173439527 -0.088244977578870024 -0.016398029772862397 0.0024165458511561156 0.042252982475731837 0.059012436278371973 -0.0064593845763458654 -0.012316697023232424 0.00059175953884342959 -0.1388061585277319 0.044241087730631401 -0.055998971543407862 0.027828577938998934 0.11285982939822614 0.02365389992722992
leaf_weight=65 54 26 750 188 41 188 127 164 340 27 36 274 20 27 21 236 252 424 48 133 166 26 42 280 20 87 70 384 121 97
leaf_count=65 54 26 750 188 41 188 127 164 340 27 36 274 20 27 21 236 252 424 48 133 166 26 42 280 20 87 70 384 121 97
internal_value=0 0.0551776 -0.0371883 0.0391906 -0.0762379 -0.0167698 0.133822 0.0594753 0.0240497 -0.10194 -0.126143 -0.0597118 -0.0488873 0.113911 0.157231 -0.0704269 -0.0931788 -0.00455936 -0.0306824 0.0480581 0.0714806 0.0342874 0.0215669 -0.00964073 -0.099197 0.0233216 -0.0326199 0.0208078 0.105527 0.0079925
internal_weight=0 1906 2828 1584 971 1857 322 677 907 380 101 591 294 174 148 297 279 989 868 347 330 159 853 704 61 811 820 724 147 285
internal_count=4734 1906 2828 1584 971 1857 322 677 907 380 101 591 294 174 148 297 279 989 868 347 330 159 853 704 61 811 820 724 147 285
shrinkage=0.05


Tree=10
num_leaves=31
num_cat=0
split_feature=113 113 113 113 113 113 113 10 11 33 73 20 68 113 47 113 113 43 11 0 55 97 49 27 26 1 29 6 47 52
split_gain=3507.51 852.596 832.352 157.957 148.893 129.906 54.1784 44.2459 29.0897 53.247 26.1144 24.994 24.0407 23.961 23.4026 23.1932 22.207 21.8506 16.8489 19.8748 16.6993 15.5561 15.447 13.573 13.361 13.3479 12.7512 12.667 12.5924 14.2575
threshold=2.3922000000000008 0.78975000000000017 4.8896000000000042 3.5970500000000034 -0.1663499999999993 1.7436500000000001 6.1639900000000063 0.013264596445055394 -0.47960678891750591 14.981832504601011 28.640000000000004 15.170092119415632 68.587497567783672 2.9825000000000013 91.197877739091112 -1.4206000000000001 1.1681000000000001 1.0000000180025095e-35 -0.47960678891750591 10.565231481481483 5.4595822028148939 2.5000000000000004 5.3831434924653569 3.9220071953764237 4.9872534249557026 -1.6532891366423108 0.79618023602838695 136.13300000000001 6.4998786532622548 23.20608922233593
decision_type=2 2 2 2 2 2 2 8 8 2 2 2 2 2 2 2 2 2 10 2 2 2 2 2 2 2 2 2 2 2
left_child=1 4 3 7 8 16 12 -2 9 26 -5 18 25 23 -8 -10 -3 21 19 20 -6 -7 -18 -9 -15 -4 -1 -17 29 -20
right_child=2 5 6 10 11 17 14 13 15 -11 -12 -13 -14 24 -16 27 22 -19 28 -21 -22 -23 -24 -25 -26 -27 -28 -29 -30 -31
leaf_value=-0.16735684462956021 0.062429494446232206 -0.036324045478425319 0.074732955275593621 0.075467114332416263 -0.068886089147153232 0.01096462853976435 0.14128406634480936 0.020908237044038581 -0.11828895242146727 -0.0710537418930067 0.051894024925178472 -0.0044337740633636716 0.15158132165670396 0.042186092693074669 0.19826396192823137 -0.095189553161257323 -0.0098138787411815396 -0.0081622803498819872 -0.063974735843131195 -0.048323509964699807 -0.11957864835858345 -0.024332748520571521 -0.025831959030297141 -0.0031941589857028291 0.023073633232664679 0.10914661236312412 -0.12293393905895451 -0.071274044820966651 -0.04339022693825851 -0.025262046261475636
leaf_weight=35 84 365 38 213 33 381 127 508 53 36 262 22 27 223 21 97 211 414 279 38 32 34 525 66 155 109 30 129 161 26
leaf_count=35 84 365 38 213 33 381 127 508 53 36 262 22 27 223 21 97 211 414 279 38 32 34 525 66 155 109 30 129 161 26
internal_value=0 -0.0342108 0.0541437 0.0385899 -0.072426 -0.0149843 0.127131 0.0276434 -0.0968434 -0.119836 0.0624647 -0.0567262 0.108216 0.024574 0.149369 -0.0885199 -0.0262405 -3.49506e-05 -0.0587481 -0.077049 -0.0938424 0.0080728 -0.0212398 0.0181369 0.034349 0.100251 -0.146854 -0.0815387 -0.054703 -0.0606746
internal_weight=0 2901 1833 1511 971 1930 322 1036 380 101 475 591 174 952 148 279 1101 829 569 103 65 415 736 574 378 147 65 226 466 305
internal_count=4734 2901 1833 1511 971 1930 322 1036 380 101 475 591 174 952 148 279 1101 829 569 103 65 415 736 574 378 147 65 226 466 305
shrinkage=0.05


Tree=11
num_leaves=31
num_cat=0
split_feature=113 113 113 113 113 113 113 1 107 56 17 0 94 31 56 113 50 113 115 66 1 55 94 113 12 31 68 47 29 78
split_gain=3171.03 874.997 641.336 131.568 122.259 118.369 72.6385 38.8458 32.498 28.1547 25.1246 23.9595 23.6432 23.2663 22.7846 18.3338 18.2579 17.5065 16.8768 15.8696 15.7835 15.6 15.5556 15.3447 15.295 13.7808 13.5851 13.2013 12.851 11.3922
threshold=2.1534000000000009 4.3827900000000026 0.44480000000000064 3.1658000000000022 5.4462500000000036 1.3990200000000004 -0.62670000000000003 -2.6033279990236826 1.0000000180025095e-35 77.521232108962366 1.4812771285570283 10.750617756361805 30.667480946082144 -1.5549999999999999 41.644518620754575 1.8171000000000002 25.449227086976279 2.6898500000000016 1.0000000180025095e-35 14.318625906640213 -2.4088413328294283 5.4595822028148939 23.000000000000011 7.0381000000000062 0.480001414754962 -1.5699999999999994 30.123369121311466 13.251215094906817 0.82258449639516285 18.165438619812111
decision_type=2 2 2 2 2 2 2 2 2 2 2 2 2 2 2 2 2 2 2 2 2 2 2 2 10 2 2 2 2 2
left_child=2 3 6 8 20 12 13 -6 -2 23 -5 -12 27 -1 18 -7 17 -10 25 24 -3 26 -13 -9 -15 -8 -14 -4 -26 -17
right_child=1 4 5 10 7 15 14 9 16 -11 11 22 21 19 -16 29 -18 -19 -20 -21 -22 -23 -24 -25 28 -27 -28 -29 -30 -31
leaf_value=-0.078390098180183609 0.053095093833618483 0.051407271083444367 -0.047106862089187823 0.0038143891812069345 0.066271374498804422 -0.015748286288612339 -0.049778860189522121 0.12241460585847815 0.01161755553544119 0.18526325446588021 0.060207971557974818 0.014228964071720841 -0.02317318135369403 -0.10443038073453037 -0.016267561552707446 0.0005417282924693274 -0.016372024064591199 0.025605724970203855 -0.10072219005307637 -0.072219588186429901 0.085963648009653171 -0.042889839434749721 0.044739368103451915 0.1554036779606596 -0.16345508786348195 -0.070964990625215163 0.018523002061105909 -0.028630597147209044 -0.1132477243244648 -0.028521909285336735
leaf_weight=85 61 40 369 32 21 587 104 141 588 27 269 50 280 88 22 380 43 361 37 23 190 102 254 47 26 293 21 131 25 37
leaf_count=85 61 40 369 32 21 587 104 141 588 27 269 50 280 88 22 380 43 361 37 23 190 102 254 47 26 293 21 131 25 37
internal_value=0 0.0453627 -0.0369159 0.0283491 0.105896 -0.0218673 -0.0777375 0.131179 0.0176729 0.137519 0.046931 0.0493389 -0.0350026 -0.0995753 -0.0659087 -0.0100535 0.0154948 0.0169387 -0.068425 -0.110691 0.0799538 -0.0259907 0.0397212 0.130662 -0.117057 -0.065415 -0.0202641 -0.0422661 -0.138844 -0.00203706
internal_weight=0 2124 2610 1658 466 1907 703 236 1053 215 605 573 903 247 456 1004 992 949 434 162 230 403 304 188 139 397 301 500 51 417
internal_count=4734 2124 2610 1658 466 1907 703 236 1053 215 605 573 903 247 456 1004 992 949 434 162 230 403 304 188 139 397 301 500 51 417
shrinkage=0.05


Tree=12
num_leaves=31
num_cat=0
split_feature=113 113 113 113 113 113 113 47 107 10 52 12 17 12 31 66 40 10 12 21 149 61 12 180 10 107 66 95 78 97
split_gain=2861.99 707.678 667.595 113.418 111.108 101.939 74.4349 28.0021 26.2429 25.1396 24.7821 26.5065 24.3054 23.5637 22.149 21.6767 21.3091 18.9393 18.1605 32.2624 17.5689 16.8885 16.1429 15.2223 13.9872 13.5233 13.5144 13.4043 15.088 13.3549
threshold=2.323500000000001 4.6043000000000038 0.68716999999999984 3.295250000000002 1.5628500000000003 -0.32369999999999899 5.7430500000000047 78.459231259321157 1.0000000180025095e-35 0.44651002624307312 7.9253167776932107 0.4967677698479333 1.4812771285570283 0.47971038692131057 -1.5149999999999995 4.7419427035088049 11.701434156501199 0.017926870691449603 0.480001414754962 10.208542866651063 1.0000000180025095e-35 10.854581789010931 0.48122952465345642 1.0000000180025095e-35 0.32517604813257472 4.5000000000000009 4.7419427035088049 0.069047619047619066 17.888369842429213 1.5000000000000002
decision_type=2 2 2 2 2 2 2 2 2 8 2 8 2 10 2 2 2 10 10 2 2 2 8 2 8 2 2 2 2 2
left_child=2 3 5 8 16 14 25 -8 -2 12 13 -12 -5 -7 29 -6 20 -14 -16 -20 22 23 -4 -10 -22 -3 -15 -17 -29 -1
right_child=1 6 4 9 15 10 7 -9 21 -11 11 -13 17 26 18 27 -18 -19 19 -21 24 -23 -24 -25 -26 -27 -28 28 -30 -31
leaf_value=-0.036778284101525234 0.054421085064057954 0.096268243874822357 -0.034417177381981211 0.0066689719259738923 0.0027863820587479319 -0.058579881113330158 0.11850672692824633 0.16367061273618178 0.017705039440942684 -0.0051786816634592564 -0.049205933375732591 0.0079687375067309905 0.082227759838104264 -0.067507723594705263 -0.089278212593075029 -0.051087726689209904 0.003718071677904649 0.049964620113199104 -0.14439550215999286 -0.075239933740634188 -0.028301890149749643 -0.01243692865107386 -0.073108236697213405 0.039840680680133342 -0.0095157411909895032 0.0695446098995645 -0.11784607663750649 -0.0060517898987991819 -0.031921431288964103 -0.080924250618104016
leaf_weight=21 54 112 383 30 546 218 156 44 724 21 258 22 50 24 135 21 51 504 48 26 365 42 29 87 136 82 30 355 67 93
leaf_count=21 54 112 383 30 546 218 156 44 724 21 258 22 50 24 135 21 51 504 48 26 365 42 29 87 136 82 30 355 67 93
internal_value=0 0.0473552 -0.0319162 0.0318028 -0.0156555 -0.0682101 0.107039 0.128443 0.0206185 0.04857 -0.0551554 -0.0447136 0.0505028 -0.0659043 -0.0905204 -0.00388129 -0.0277351 0.0528765 -0.10019 -0.120098 -0.0294921 0.0184786 -0.0371406 0.0200796 -0.0232023 0.0849727 -0.0954735 -0.0120992 -0.0101591 -0.0727921
internal_weight=0 1906 2828 1512 1953 875 394 200 907 605 552 280 584 272 323 989 964 554 209 74 913 853 412 811 501 194 54 443 422 114
internal_count=4734 1906 2828 1512 1953 875 394 200 907 605 552 280 584 272 323 989 964 554 209 74 913 853 412 811 501 194 54 443 422 114
shrinkage=0.05


Tree=13
num_leaves=31
num_cat=0
split_feature=113 113 113 113 113 113 113 73 1 56 18 61 113 56 94 83 115 49 38 13 97 55 113 113 50 68 37 47 61 12
split_gain=2589.01 714.838 525.001 107.761 99.6994 96.2645 59.548 33.9106 33.5661 24.6685 24.2178 22.3725 20.9603 20.6559 19.8086 17.1262 17.12 16.5064 15.7001 14.0469 13.9963 13.4615 13.3065 13.2701 12.1243 12.0124 11.9313 12.7083 11.8952 12.1005
threshold=2.1534000000000009 4.3827900000000026 0.44480000000000064 2.8654600000000015 5.4462500000000036 1.3990200000000004 -0.80614999999999959 12.415000000000001 -2.6033279990236826 77.521232108962366 203.40322634483735 11.445372914845015 3.5970500000000034 41.644518620754575 30.667480946082144 10.200089334040763 1.0000000180025095e-35 12.409223497054535 5.8175418094404625 0.40954789242618711 2.5000000000000004 5.4595822028148939 -0.074629999999999905 6.7530500000000027 18.981650512304089 30.123369121311466 10.778920435056143 13.251215094906817 4.879182727811636 0.46177400301167282
decision_type=2 2 2 2 2 2 2 2 2 2 2 2 2 2 2 2 2 2 2 8 2 2 2 2 2 2 2 2 2 10
left_child=2 3 6 17 19 14 10 -5 -6 23 -1 12 -9 16 26 28 22 -2 -12 -3 -18 25 -8 -10 -17 -16 27 -4 29 -7
right_child=1 4 5 7 8 15 13 11 9 -11 18 -13 -14 -15 21 24 20 -19 -20 -21 -22 -23 -24 -25 -26 -27 -28 -29 -30 -31
leaf_value=-0.11717178611194386 0.016866432015960834 0.076088922258821273 -0.040798743435415938 0.05628473570945805 0.058198232239200953 -0.016247605208783333 -0.070130604675780708 0.02731787514661449 0.10869041730960211 0.1691180529417815 -0.055227738805115223 -0.018350773903408221 0.045759885758928066 -0.013467852686616509 -0.020753558922733645 0.0036441731848339703 -0.065981289405714391 0.0010028644574360333 -0.09171062126906232 0.03223583085462451 -0.12377422153949738 -0.039035835658318786 -0.052377092123764457 0.1369460097243709 -0.034899751096963881 0.018454877966793164 -0.061152331867539461 -0.021937266114448024 -0.021760384467967072 0.00041191062034788328
leaf_weight=68 548 210 326 191 21 229 186 421 126 27 42 21 243 22 280 281 22 234 99 20 20 102 244 62 22 21 51 123 264 208
leaf_count=68 548 210 326 191 21 229 186 421 126 27 42 21 243 22 280 281 22 234 99 20 20 102 244 62 22 21 51 123 264 208
internal_value=0 0.0409889 -0.0333565 0.025611 0.0957025 -0.019741 -0.0702906 0.0376547 0.118534 0.124427 -0.0926631 0.03246 0.034067 -0.0608252 -0.0315864 -0.0090872 -0.0630326 0.0121195 -0.0808434 0.0722756 -0.0935017 -0.0233377 -0.0600565 0.118009 0.000845604 -0.0180181 -0.0382349 -0.0356318 -0.0133806 -0.00831813
internal_weight=0 2124 2610 1658 466 1907 703 876 236 215 209 685 664 494 903 1004 472 782 141 230 42 403 430 188 303 301 500 449 701 437
internal_count=4734 2124 2610 1658 466 1907 703 876 236 215 209 685 664 494 903 1004 472 782 141 230 42 403 430 188 303 301 500 449 701 437
shrinkage=0.05


Tree=14
num_leaves=31
num_cat=0
split_feature=113 113 113 113 113 113 1 10 113 115 26 61 113 198 83 61 57 49 10 97 0 43 34 78 113 97 27 47 37 47
split_gain=2337.94 571.522 559.102 106.08 100.252 87.2092 38.9341 31.1968 29.2946 21.5441 21.12 20.2967 19.8545 19.1284 19.0701 18.4831 18.4031 17.7319 17.2142 16.8654 23.3944 16.0611 14.4255 14.0285 13.7445 13.7428 13.4265 13.1565 11.7382 10.6108
threshold=2.3922000000000008 0.78975000000000017 4.8896000000000042 3.5970500000000034 -0.1663499999999993 1.7436500000000001 -2.8291437153565129 0.013264596445055394 6.1639900000000063 1.0000000180025095e-35 4.8651851944945808 9.6555689675844558 -1.4206000000000001 1.0000000180025095e-35 15.871013049348702 11.445372914845015 28.727271410027104 5.3831434924653569 0.28111741913674915 2.5000000000000004 10.661834197815441 10.112822028421864 10.670870036771447 18.165438619812111 2.9825000000000013 2.5000000000000004 3.0728146753786603 10.686662571015992 4.6806678727242259 5.9934006936586268
decision_type=2 2 2 2 2 2 2 8 2 2 2 2 2 2 2 2 2 2 8 2 2 2 2 2 2 2 2 2 2 2
left_child=1 4 3 7 9 17 -4 -2 13 12 -5 19 27 -8 23 24 -13 26 -14 -6 -21 25 -10 -7 -9 29 -3 -1 -12 -19
right_child=2 5 6 10 11 14 8 15 22 -11 28 16 18 -15 -16 -17 -18 21 -20 20 -22 -23 -24 -25 -26 -27 -28 -29 -30 -31
leaf_value=-0.10629658627769221 0.051695566917104391 -0.014294405727503965 0.052571641055471977 0.064048684587543633 -0.04791709931129641 -0.0017813381452491642 0.086256506711971478 0.0163193505102005 0.11970570161322919 -0.11786032531297569 0.019638918062790913 -0.037582170127720485 -0.079960185574560333 0.13423183417320253 0.014062467720585585 -0.013357692696154118 0.013646542727947237 -0.036216151790272093 -0.053928620805778441 -0.10497625717385249 -0.043969448345402881 -0.011577172397185833 0.16554496496915819 -0.028191699841144408 0.028830847417449824 -0.046148999758064746 0.02617774580351331 -0.060239615887403487 0.046963729851510538 -0.020915001700699182
leaf_weight=69 84 299 33 188 366 586 123 544 121 33 47 142 145 25 188 40 20 168 113 33 30 164 20 55 368 100 22 20 240 348
leaf_count=69 84 299 33 188 366 586 123 544 121 33 47 142 145 25 188 40 20 168 113 33 30 164 20 55 368 100 22 20 240 348
internal_value=0 -0.0279306 0.0442044 0.0314567 -0.0592189 -0.0121892 0.104023 0.0224861 0.109898 -0.0792548 0.0510221 -0.0463362 -0.0755833 0.0943604 5.9513e-05 0.0199088 -0.0312576 -0.0214118 -0.0685588 -0.0520302 -0.0759254 -0.0254824 0.126208 -0.00404744 0.0213678 -0.0291845 -0.0115206 -0.0959467 0.0424889 -0.0258968
internal_weight=0 2901 1833 1511 971 1930 322 1036 289 380 475 591 347 148 829 952 162 1101 258 429 63 780 141 641 912 616 321 89 287 516
internal_count=4734 2901 1833 1511 971 1930 322 1036 289 380 475 591 347 148 829 952 162 1101 258 429 63 780 141 641 912 616 321 89 287 516
shrinkage=0.05


Tree=15
num_leaves=31
num_cat=0
split_feature=113 113 113 113 113 113 113 1 107 49 18 17 56 113 45 56 49 31 11 49 115 38 30 113 45 73 1 31 113 78
split_gain=2113.96 603.71 415.151 93.4138 85.3848 72.7559 48.6535 27.6851 26.6938 21.9071 21.2451 20.9638 20.6056 19.676 18.7489 18.0871 15.4309 15.3346 14.5758 14.3957 13.9422 13.7123 13.4842 13.0635 14.1185 12.4298 12.3788 11.9524 11.4292 11.1349
threshold=2.1060900000000005 4.2444500000000032 0.44480000000000064 5.4462500000000036 2.7990000000000013 1.1681000000000001 -0.80614999999999959 -2.6033279990236826 1.5000000000000002 5.3831434924653569 203.40322634483735 1.4812771285570283 77.521232108962366 3.295250000000002 14.497328606464876 41.644518620754575 12.242984763674096 -1.4599999999999995 -0.33633063933810864 25.061522806791334 1.0000000180025095e-35 5.8175418094404625 7.195416468454046 1.8053500000000002 6.8398442695337138 52.625000000000021 -0.9788888888888887 -1.5699999999999994 7.0381000000000062 18.954442697955034
decision_type=2 2 2 2 2 2 2 2 2 2 2 2 2 2 2 2 2 2 8 2 2 2 2 2 2 2 2 2 2 2
left_child=2 4 6 22 16 17 10 -5 -6 -7 -1 19 28 -13 23 20 29 25 -15 -10 27 -12 -3 24 -11 -4 -22 -8 -9 -2
right_child=1 3 5 7 8 9 15 12 11 14 21 13 -14 18 -16 -17 -18 -19 -20 -21 26 -23 -24 -25 -26 -27 -28 -29 -30 -31
leaf_value=-0.10673609383486432 0.015975223519530124 0.067531557151553581 0.015644992664456368 0.052230351205383031 0.051616048062807764 -0.00068842473455929553 -0.040585709711455781 0.099394484699195165 -0.035159303425323397 -0.019441416866105898 -0.048771131615198797 0.021032210234960835 0.15322339490607934 0.045019274365200895 0.03004495300013911 -0.01068741919642145 -0.00052588064049597879 -0.038165386202195242 0.024784516019365974 0.023385903097334362 -0.057419459841081079 -0.082866296096883646 0.028982697963714599 -0.0076707133058388378 -0.061204354571444658 -0.025564964962798323 -0.11170889337857565 -0.059419057943991251 0.12786515317064651 -0.021176761286776691
leaf_weight=68 509 245 20 21 149 348 115 141 21 557 42 308 27 254 22 22 252 398 137 21 21 99 25 272 21 215 21 315 47 21
leaf_count=68 509 245 20 21 149 348 115 141 21 557 42 308 27 254 22 22 252 398 137 21 21 99 25 272 21 215 21 315 47 21
internal_value=0 0.0361956 -0.0308427 0.0840473 0.0217141 -0.018431 -0.0635582 0.107026 0.0323054 -0.0112944 -0.0837809 0.0284225 0.112378 0.030484 -0.0155271 -0.0550024 0.00966004 -0.0321855 0.0379293 -0.0058867 -0.0570679 -0.0727103 0.0639622 -0.0167066 -0.0209588 -0.0220577 -0.0845642 -0.0543822 0.106512 0.0145032
internal_weight=0 2178 2556 506 1672 1853 703 236 890 1220 209 741 215 699 872 494 782 633 391 42 472 141 270 850 578 235 42 430 188 530
internal_count=4734 2178 2556 506 1672 1853 703 236 890 1220 209 741 215 699 872 494 782 633 391 42 472 141 270 850 578 235 42 430 188 530
shrinkage=0.05


Tree=16
num_leaves=31
num_cat=0
split_feature=113 113 113 113 113 113 1 12 113 83 73 31 11 21 83 62 17 198 10 198 11 93 78 58 69 47 67 113 84 100
split_gain=1908.64 487.586 438.984 83.013 79.4529 79.4173 32.4855 25.3361 23.9238 20.2515 19.098 18.943 18.7387 26.9588 18.681 20.1315 17.2608 16.0612 15.7516 14.6105 14.3042 13.2076 13.1704 12.3673 12.3203 11.9757 11.3021 10.7721 10.7297 10.4973
threshold=2.4534000000000007 0.78975000000000017 4.8896000000000042 -0.1663499999999993 1.7436500000000001 3.725900000000002 -2.8291437153565129 0.099985015888972253 6.1639900000000063 15.120138917176122 28.640000000000004 -1.5149999999999995 -0.47993032319010315 10.208542866651063 10.046267513132403 10.273516077085583 1.192775932754359 1.0000000180025095e-35 0.26897031622750095 1.0000000180025095e-35 -0.12138786075034395 1.1728037603930466 18.165438619812111 42.836488982713455 15.660267955791392 6.0711935876477465 5.3082683152844066 -0.9075500000000003 13.571203156521099 1.0000000180025095e-35
decision_type=2 2 2 2 2 2 2 8 2 2 2 2 8 2 2 2 2 2 10 2 10 2 2 2 2 2 2 2 2 2
left_child=1 3 5 11 18 7 -4 -2 17 22 -7 26 13 -13 -5 -16 -9 -8 20 -18 25 -20 -6 -10 -23 -3 -1 -14 -24 -11
right_child=2 4 6 14 9 10 8 16 23 29 -12 12 27 -15 15 -17 19 -19 21 -21 -22 24 28 -25 -26 -27 -28 -29 -30 -31
leaf_value=-0.065546367455618051 0.046055919526144865 -0.034716203302186992 0.047042194403933757 -0.04796825764725926 -0.0013256988633281342 0.060178914495095936 0.077939301880636844 -0.02140947646368295 0.14457291960716248 0.01874378444240914 0.038304309684751785 -0.12250023642364814 -0.088237032269017177 -0.059511030737597205 -0.034502998726022555 0.018481535026803615 0.018847969031758959 0.12190022778511048 -0.0079127086874391152 0.042318085402560733 0.015709138195961713 -0.051728520755256926 -0.0070943160331808034 0.10693879368012411 -0.017260789094027132 -0.020135052044237559 -0.032823597423329548 -0.062033599984442071 -0.048363355786672668 -0.011142868633781161
leaf_weight=92 100 244 33 398 620 184 123 25 27 183 218 49 59 26 173 20 839 25 368 72 21 35 36 114 100 333 37 117 28 35
leaf_count=92 100 244 33 398 620 184 123 25 27 183 218 49 59 26 173 20 839 25 368 72 21 35 36 114 100 333 37 117 28 35
internal_value=0 -0.0244233 0.0412698 -0.0535007 -0.0103273 0.0294534 0.0940401 0.0221339 0.0994067 0.000674733 0.0483166 -0.0717328 -0.0797359 -0.100664 -0.0417779 -0.0290124 0.0195781 0.0853651 -0.0193409 0.0207029 -0.0248258 -0.01282 -0.00355483 0.114145 -0.0261969 -0.0263011 -0.0561608 -0.0708177 -0.0251495 0.0139455
internal_weight=0 2974 1760 971 2003 1438 322 1036 289 902 402 380 251 75 591 193 936 148 1101 911 598 503 684 141 135 577 129 176 64 218
internal_count=4734 2974 1760 971 2003 1438 322 1036 289 902 402 380 251 75 591 193 936 148 1101 911 598 503 684 141 135 577 129 176 64 218
shrinkage=0.05


Tree=17
num_leaves=31
num_cat=0
split_feature=113 113 113 113 113 113 113 3 1 49 17 47 45 68 33 10 113 43 113 61 31 65 30 56 58 73 97 45 37 93
split_gain=1726.63 506.414 328.012 76.0828 75.667 54.9982 39.8621 23.5401 22.8124 21.2916 19.4417 17.8997 17.3911 16.9934 16.9218 16.4746 18.1494 14.6875 14.0306 13.5964 13.1362 12.3658 12.0382 11.7432 11.1329 11.1028 10.5024 10.2617 12.4323 10.1973
threshold=2.0581100000000006 4.2444500000000032 0.44480000000000064 2.7990000000000013 5.4462500000000036 1.1681000000000001 -1.094199999999999 1.061329483182162 -2.6033279990236826 5.3831434924653569 1.4812771285570283 82.487203602127209 14.497328606464876 30.123369121311466 14.689221989675989 0.44956641018930593 3.295250000000002 1.0000000180025095e-35 -0.074629999999999905 10.48172810349587 -1.4599999999999995 49.949411782600301 7.195416468454046 52.372404136937313 1.0000000180025095e-35 52.625000000000021 2.5000000000000004 6.8398442695337138 5.1568902098089984 1.1535416666666667
decision_type=2 2 2 2 2 2 2 2 2 2 2 2 2 2 2 8 2 2 2 2 2 2 2 2 2 2 2 2 2 2
left_child=2 3 6 17 22 20 14 10 -6 29 21 -10 27 18 24 16 -12 23 -8 26 25 -5 -3 -2 -1 -4 -20 28 -11 -7
right_child=1 4 5 7 8 9 13 -9 11 12 15 -13 -14 -15 -16 -17 -18 -19 19 -21 -22 -23 -24 -25 -26 -27 -28 -29 -30 -31
leaf_value=-0.11043514851913896 0.01688051155834561 0.061242391671605258 0.015933353565633298 -0.035279537402093407 0.046887378217208953 0.0047636665608825207 -0.061666335181817127 0.052362730194415369 0.095233355693066318 -0.0073747446308277042 0.020756027433936571 0.1347730576992035 0.028774214595085307 -0.012554887240683592 -0.053598484280519193 -0.016555576827377082 0.036587831327759029 0.0017253874015193159 -0.046317774718572874 -0.024957028369877548 -0.034608420439593349 0.019655266936336246 0.024819007322192194 -0.022397850239649415 -0.077740108103237379 -0.023014728852092874 -0.076030962634831667 -0.047816852450370789 -0.020318270672040312 -0.015413623970669572
leaf_weight=43 392 245 20 20 21 255 254 98 181 304 330 34 22 27 43 20 401 425 171 63 398 21 25 20 66 215 36 25 476 83
leaf_count=43 392 245 20 20 21 255 254 98 181 304 330 34 22 27 43 20 401 425 171 63 398 21 25 20 66 215 36 25 476 83
internal_value=0 0.0319572 -0.0285327 0.0190685 0.0759467 -0.0172103 -0.0574911 0.0292459 0.0966278 -0.0107643 0.0263854 0.101486 -0.0150856 -0.0512377 -0.0801598 0.0282158 0.0294408 0.00824671 -0.0532309 -0.0452954 -0.0290737 -0.0071422 0.0578699 0.0149738 -0.0906382 -0.0197 -0.0514853 -0.0162843 -0.0152736 -0.000191112
internal_weight=0 2233 2501 1727 506 1798 703 890 236 1165 792 215 827 551 152 751 731 837 524 270 633 41 270 412 109 235 207 805 780 338
internal_count=4734 2233 2501 1727 506 1798 703 890 236 1165 792 215 827 551 152 751 731 837 524 270 633 41 270 412 109 235 207 805 780 338
shrinkage=0.05


Tree=18
num_leaves=31
num_cat=0
split_feature=113 113 113 113 113 113 113 47 49 26 94 31 115 47 19 49 104 74 95 50 29 188 12 97 37 47 13 50 13 10
split_gain=1559.29 432.478 317.668 65.2309 61.707 58.1012 36.0944 20.6092 19.8984 18.4124 15.5727 15.5027 15.8634 15.481 14.5077 14.1242 16.7054 15.8511 12.797 12.5532 12.2207 11.7517 12.2697 13.8811 11.7402 12.2925 11.4986 10.7165 10.406 10.3723
threshold=2.1534000000000009 4.3827900000000026 0.44480000000000064 3.1658000000000022 1.5051000000000001 5.4462500000000036 -0.32369999999999899 69.482659999011915 5.3535887576335766 5.0216242848970216 30.667480946082144 -2.0599999999999992 1.0000000180025095e-35 22.904999212390624 11.556077608631682 12.409223497054535 1.5000000000000002 9.7995471799495615 0.2752525252525253 10.513048285936128 5.1872583738548315 1.0000000180025095e-35 0.50430492941399085 2.5000000000000004 10.778920435056143 11.705504793147133 0.40954789242618711 20.831388630991309 0.32633093058983198 0.32818340172419996
decision_type=2 2 2 2 2 2 2 2 2 2 2 2 2 2 2 2 2 2 2 2 2 2 10 2 2 2 8 2 8 8
left_child=2 3 6 8 10 26 11 29 -2 -5 24 -1 27 -8 -11 16 28 -18 -16 -10 -20 22 23 -12 25 -4 -3 -13 -6 -7
right_child=1 5 4 9 15 7 13 -9 19 14 21 12 -14 -15 18 -17 17 -19 20 -21 -22 -23 -24 -25 -26 -27 -28 -29 -30 -31
leaf_value=-0.035483167144869057 0.022947897392170135 0.059933421894730554 -0.032365017902251485 0.04132978551395261 -0.0012424776353932407 0.085278216830822595 -0.046849402694792402 0.10963958560799558 0.012392069209746259 -0.017223409470170738 -0.012139786589697077 -0.063378148796077158 -0.10964337351421516 -0.0061417086049914364 0.0075621102521052728 -0.014750739259631444 -0.0075219825442348204 -0.056089423831629882 0.03962919988124719 -0.0014953733994277714 0.010608784687034092 -0.04794996681490115 0.010505578787574037 -0.034223227394789821 -0.05053525742675577 -0.016706868661874829 0.020257014082744718 -0.093838573134306713 0.016340392274416495 0.04716382934046643
leaf_weight=35 311 210 333 314 394 119 355 96 501 20 303 231 24 25 65 268 56 24 159 241 47 28 44 93 56 201 20 33 107 21
leaf_count=35 311 210 333 314 394 119 355 96 501 20 303 231 24 25 65 268 56 24 159 241 47 28 44 93 56 201 20 33 107 21
internal_value=0 0.0318099 -0.0258867 0.0198487 -0.0152956 0.0743672 -0.0546166 0.0917964 0.0123313 0.0329327 -0.0233526 -0.0669052 -0.0707238 -0.0441713 0.0238719 -0.00525523 -0.0008752 -0.0220922 0.0269048 0.00788146 0.033008 -0.0165416 -0.0145429 -0.017326 -0.0287553 -0.0264712 0.0564833 -0.0671857 0.00251275 0.0795611
internal_weight=0 2124 2610 1658 1907 466 703 236 1053 605 1058 323 288 380 291 849 581 80 271 742 206 468 440 396 590 534 230 264 501 140
internal_count=4734 2124 2610 1658 1907 466 703 236 1053 605 1058 323 288 380 291 849 581 80 271 742 206 468 440 396 590 534 230 264 501 140
shrinkage=0.05


Tree=19
num_leaves=31
num_cat=0
split_feature=113 113 113 113 113 113 1 12 49 113 26 52 12 104 12 74 115 31 61 11 198 83 40 47 12 102 12 34 13 97
split_gain=1412.34 345.007 338.615 64.1545 62.1392 49.9272 24.8378 20.8529 19.0465 18.1891 18.1688 18.1614 21.5429 16.5547 16.0987 16.0452 14.97 14.2278 14.0812 13.9525 12.8395 12.5255 12.2089 11.5629 19.038 11.1117 13.7861 10.6819 10.595 10.5791
threshold=2.3922000000000008 0.68716999999999984 4.8896000000000042 3.5632500000000022 1.5051000000000001 -0.32369999999999899 -2.8291437153565129 0.099985015888972253 12.499363529205217 6.1639900000000063 4.8651851944945808 11.757217591853953 0.49586147411434073 1.5000000000000002 0.47971038692131057 10.070709006220573 1.0000000180025095e-35 -1.5149999999999995 11.445372914845015 -0.46178462269428927 1.0000000180025095e-35 12.135588381253886 11.701434156501199 11.294446506381197 0.480001414754962 1.0000000180025095e-35 0.48122952465345642 10.670870036771447 0.32739938470861646 1.5000000000000002
decision_type=2 2 2 2 2 2 2 8 2 2 2 2 8 2 10 2 2 2 2 8 2 2 2 2 10 2 8 2 10 2
left_child=1 5 3 7 22 17 -4 -2 13 20 -5 14 -13 21 -7 -15 -16 29 19 -9 -8 28 25 24 -19 26 -3 -11 -6 -1
right_child=2 4 6 10 8 11 9 18 -10 27 -12 12 -14 15 16 -17 -18 23 -20 -21 -22 -23 -24 -25 -26 -27 -28 -29 -30 -31
leaf_value=-0.017297689226411641 0.039432278349219516 -0.025364986328815904 0.039814874981388908 0.051042703015026537 -0.0035418393916053768 -0.040813966515562398 0.066719586363372704 0.025986425101873468 -0.012287478621076993 0.092858764307558045 0.031442509441157555 -0.032524285492224574 0.021964719733223323 -0.0070314316181591292 -0.052222447023662022 -0.055568513220974385 -0.10458274317905308 -0.066851095754075149 -0.014070119284588145 0.012190472241294242 0.10602503561973571 0.016135369636783643 0.0044887563966690231 -0.049475939837878846 -0.10486388520702072 -0.016425374820589738 -0.062423155898297278 0.13230411902070047 0.01340461324740079 -0.05658894345084186
leaf_weight=21 96 356 33 196 378 274 123 260 354 121 298 195 20 90 43 21 20 116 40 621 25 175 47 47 46 456 27 20 122 93
leaf_count=21 96 356 33 196 378 274 123 260 354 121 298 195 20 90 43 21 20 116 40 621 25 175 47 47 46 456 27 20 122 93
internal_value=0 -0.0217086 0.0343572 0.0244366 -0.0103769 -0.0479463 0.08091 0.0172561 -0.00265728 0.0856025 0.0392191 -0.0388101 -0.0274555 0.00167999 -0.0460541 -0.0162141 -0.0688448 -0.0635599 0.0149446 0.0162619 0.073359 0.00462257 -0.0203097 -0.0713102 -0.0776449 -0.0216988 -0.0279774 0.0984539 0.000593095 -0.0493511
internal_weight=0 2901 1833 1511 2026 875 322 1017 1140 289 494 552 215 786 337 111 63 323 921 881 148 675 886 209 162 839 383 141 500 114
internal_count=4734 2901 1833 1511 2026 875 322 1017 1140 289 494 552 215 786 337 111 63 323 921 881 148 675 886 209 162 839 383 141 500 114
shrinkage=0.05


Tree=20
num_leaves=31
num_cat=0
split_feature=113 113 113 113 113 113 113 107 47 3 71 49 83 34 115 40 49 113 68 58 51 39 13 78 12 45 43 47 4 10
split_gain=1276.86 405.534 219.301 70.6525 54.3632 41.6019 21.3306 19.7417 17.4001 17.1653 15.8647 14.7259 14.7007 14.0213 13.8988 13.3065 13.6036 12.3466 11.5261 11.344 10.9811 10.5868 10.5254 10.3868 9.85303 9.19254 8.98804 8.52474 8.44716 8.43486
threshold=1.9363000000000004 4.2444500000000032 0.22774999999999992 2.7990000000000013 5.4462500000000036 1.0420500000000004 -1.094199999999999 1.5000000000000002 69.482659999011915 0.0042138114847626315 10.328609659741831 12.242984763674096 10.587221383447229 7.6060045023550638 1.0000000180025095e-35 11.701434156501199 6.1189650671509019 3.5970500000000034 28.828321664893569 1.0000000180025095e-35 9.642922229266178 5.4218904306486619 0.32633093058983198 19.319069412635901 0.47763832045069465 6.8398442695337138 5.0006586282951018 25.436211519335789 0.57892635256227398 0.32818340172419996
decision_type=2 2 2 2 2 2 2 2 2 2 2 2 2 2 2 2 2 2 2 2 2 2 10 2 8 2 2 2 2 8
left_child=2 3 6 11 21 12 13 -5 29 -9 15 23 -4 19 18 16 22 -11 25 -1 -12 -3 -7 24 28 -8 -14 -13 -2 -6
right_child=1 4 5 7 8 10 14 9 -10 17 20 27 26 -15 -16 -17 -18 -19 -20 -21 -22 -23 -24 -25 -26 -27 -28 -29 -30 -31
leaf_value=-0.096634136570824522 0.014219169686672041 0.055299006379431206 -0.032233756117436806 0.041830948289583794 0.076771823730037991 -0.0095984931378547012 -0.049071374972749236 -0.023806987344287336 0.099253895133733755 0.01840012436658657 -0.0173083213146113 -0.0070842917108393522 -0.023154454736504706 -0.037422448582947257 -0.076764662150998378 0.014582327681665237 -0.016793362213175674 0.0321608352112999 -0.0077186450235603851 -0.065182371829180311 -0.051243782642268344 0.031484108231961731 0.0077147926522108425 -0.022208342918505274 0.020737499168464318 -0.019716963518796298 0.0024740165484567677 0.012285597664814393 0.00069420347093817605 0.042401015545640679
leaf_weight=45 226 210 479 149 119 327 332 20 96 472 59 256 100 28 37 52 530 249 20 79 40 60 120 24 194 29 52 73 236 21
leaf_count=45 226 210 479 149 119 327 332 20 96 472 59 256 100 28 37 52 530 249 20 79 40 60 120 24 194 29 52 73 236 21
internal_value=0 0.0255537 -0.0263876 0.0149554 0.065329 -0.0176537 -0.0533402 0.0252242 0.0828587 0.021885 -0.0119025 0.00589763 -0.0279347 -0.0693801 -0.0475075 -0.0100633 -0.011375 0.0231524 -0.0446663 -0.0765963 -0.0310196 0.0500068 -0.00495063 0.0100992 0.0112812 -0.0467133 -0.0143868 -0.00278641 0.00731031 0.0716162
internal_weight=0 2405 2329 1899 506 1759 570 890 236 741 1128 1009 631 152 418 1029 977 721 381 124 99 270 447 680 656 361 152 329 462 140
internal_count=4734 2405 2329 1899 506 1759 570 890 236 741 1128 1009 631 152 418 1029 977 721 381 124 99 270 447 680 656 361 152 329 462 140
shrinkage=0.05


Tree=21
num_leaves=31
num_cat=0
split_feature=113 113 113 113 113 113 1 10 83 113 6 61 95 31 115 17 97 47 10 93 142 198 113 10 78 31 97 115 84 31
split_gain=1155 294.733 265.525 54.0249 48.0101 45.9979 20.8144 17.467 16.2565 15.9666 15.2273 15.1819 13.7397 13.5459 14.6577 13.4879 12.9594 13.0466 11.5731 12.1252 11.4452 11.0797 10.5929 10.4141 10.413 9.80043 14.1423 15.1909 9.41784 9.01592
threshold=2.4534000000000007 0.83225000000000016 4.8896000000000042 -0.11514999999999923 3.725900000000002 1.7436500000000001 -2.8291437153565129 0.013264596445055394 15.120138917176122 7.0381000000000062 238.76750000000001 9.6555689675844558 0.62202380952380965 -2.0599999999999992 1.0000000180025095e-35 1.192775932754359 2.5000000000000004 19.336695379928141 0.26400434739708728 0.19144070051218479 1.0000000180025095e-35 1.0000000180025095e-35 -1.6341149999999998 0.28111741913674915 18.165438619812111 -1.9949999999999999 2.5000000000000004 1.0000000180025095e-35 13.571203156521099 1.0000000180025095e-35
decision_type=2 2 2 2 2 2 2 8 2 2 2 2 2 2 2 2 2 2 8 2 2 2 2 8 2 2 2 2 2 2
left_child=1 3 4 13 7 16 -4 -2 24 21 -6 25 -13 -1 22 -9 17 18 -3 -20 29 -8 -15 -24 -7 -5 -27 -28 -26 -17
right_child=2 5 6 11 10 8 9 15 -10 -11 -12 12 -14 14 -16 20 -18 -19 19 -21 -22 -23 23 -25 28 26 27 -29 -30 -31
leaf_value=-0.028410906020906714 0.03907942527564176 -0.02140720051933924 0.035525309181574621 -0.0037436488973484798 0.05241009613983949 -0.001222596006683166 0.067199895977412341 -0.020945859737694264 0.01247473398488925 0.10224035146101468 0.031194807942360112 -0.024520223202287323 0.016536521603120493 -0.073216282498480667 -0.09315895688320909 0.02089910967446524 -0.029754281632132892 0.0006734204768068402 -0.0032406082906156833 -0.022109506336227061 0.0058455399496526259 0.096996160616745819 -0.059220138403677174 -0.038939867979873005 -0.0054907992223484654 -0.034335405505356707 -0.042526072101333204 -0.096123095005750669 -0.044154679914936427 0.00050236729084182597
leaf_weight=42 84 392 33 22 121 620 199 25 218 53 281 135 24 67 28 663 127 152 267 125 205 37 155 107 36 370 39 20 28 59
leaf_count=42 84 392 33 22 121 620 199 25 218 53 281 135 24 67 28 663 127 152 267 125 205 37 155 107 36 370 39 20 28 59
internal_value=0 -0.0189991 0.0321041 -0.040965 0.0229141 -0.00771985 0.0731451 0.0172231 0.000584792 0.0774407 0.0375805 -0.0316079 -0.018323 -0.0552704 -0.0584303 0.0152946 -0.0147667 -0.0127331 -0.0153323 -0.00925748 0.0162719 0.0718713 -0.0554747 -0.0509377 -0.00320469 -0.0362914 -0.0379606 -0.0606946 -0.0224062 0.0192323
internal_weight=0 2974 1760 1009 1438 1965 322 1036 902 289 402 610 159 399 357 952 1063 936 784 392 927 236 329 262 684 451 429 59 64 722
internal_count=4734 2974 1760 1009 1438 1965 322 1036 902 289 402 610 159 399 357 952 1063 936 784 392 927 236 329 262 684 451 429 59 64 722
shrinkage=0.05


Tree=22
num_leaves=31
num_cat=0
split_feature=113 113 113 113 113 113 198 18 113 49 83 57 45 66 10 113 61 115 58 43 13 10 30 31 12 97 67 56 48 61
split_gain=1043.33 306.446 200.943 47.2856 44.6472 44.251 18.7021 18.238 17.6134 16.0723 14.7639 16.5982 14.3982 12.653 12.4985 13.1896 12.3512 14.4147 12.0743 11.3778 11.2788 10.5647 9.77034 9.68678 10.8982 14.3182 9.65687 9.2532 9.89035 8.89421
threshold=2.0581100000000006 4.2444500000000032 0.22774999999999992 2.7990000000000013 6.1639900000000063 1.1681000000000001 2.5000000000000004 685.65149048752028 -1.094199999999999 5.3831434924653569 10.587221383447229 30.792683023722361 14.497328606464876 19.033963160607858 0.013264596445055394 3.5632500000000022 17.253972661758507 1.0000000180025095e-35 1.0000000180025095e-35 1.0000000180025095e-35 0.14977658199012808 0.12913050622692929 7.6060833696073669 -1.4749999999999996 0.47971038692131057 2.5000000000000004 5.867563443603645 52.372404136937313 23.923286949222977 10.874348356914235
decision_type=2 2 2 2 2 2 2 2 2 2 2 2 2 2 8 2 2 2 2 2 8 8 2 2 8 2 2 2 2 2
left_child=2 3 8 19 6 10 20 14 13 -7 23 -12 -11 18 -5 -16 17 -10 -1 27 -3 -6 -22 -4 -25 -26 -21 28 -2 -9
right_child=1 4 5 7 21 9 -8 29 16 12 11 -13 -14 -15 15 -17 -18 -19 -20 26 22 -23 -24 24 25 -27 -28 -29 -30 -31
leaf_value=-0.089842089096253575 0.0071969407468253357 0.05581119501303812 -0.018304913216120294 0.045298031741729028 0.098114330407048839 0.00084421475092086881 0.09034877442396605 0.012268575879796927 -0.042067527374605146 -0.013187206787086393 -0.016712767489555452 0.031534408368170265 0.027811206739914437 -0.025779813630506399 0.018911267888439862 0.034008986767436966 -0.0065005181865258653 -0.076118260624763734 -0.057763109628153453 -0.0061683155027933353 0.041963717362049645 0.070974698611374551 0.0062678045762533498 -0.028462221514992139 -0.032901374082558041 -0.081527944002300512 0.0090067118195757429 -0.020968886613845827 0.023311087674964107 -0.022563123525608155
leaf_weight=44 229 161 186 77 61 338 26 144 362 805 164 20 22 20 430 218 22 34 88 237 149 87 22 331 41 24 188 20 163 21
leaf_count=44 229 161 186 77 61 338 26 144 362 805 164 20 22 20 430 218 22 34 88 237 149 87 22 331 41 24 188 20 163 21
internal_value=0 0.0248416 -0.0221797 0.0148155 0.0590611 -0.0144796 0.0495116 0.0228389 -0.0482654 -0.00834207 -0.023814 -0.0114685 -0.0120966 -0.0628408 0.0262535 0.0239904 -0.0429653 -0.0449911 -0.0684561 0.00628411 0.0463135 0.0821606 0.0373713 -0.0277171 -0.0321379 -0.0508558 0.000544402 0.0122049 0.0138975 0.00783545
internal_weight=0 2233 2501 1727 506 1931 358 890 570 1165 766 184 827 152 725 648 418 396 132 837 332 148 171 582 396 65 425 412 392 165
internal_count=4734 2233 2501 1727 506 1931 358 890 570 1165 766 184 827 152 725 648 418 396 132 837 332 148 171 582 396 65 425 412 392 165
shrinkage=0.05


Tree=23
num_leaves=31
num_cat=0
split_feature=113 113 113 113 113 113 3 0 115 97 113 71 47 43 31 14 83 40 98 10 10 74 38 1 112 30 97 67 40 23
split_gain=943.853 298.725 161.995 52.1563 40.6371 30.3609 16.9 16.9861 16.1418 16.4327 15.394 14.0679 14.0483 12.715 12.4485 11.9353 11.5364 11.1673 11.6211 14.2859 10.3178 10.2957 9.84988 9.75538 9.70409 9.23689 8.70493 8.22659 10.4463 7.82566
threshold=1.9363000000000004 4.2444500000000032 0.22774999999999992 2.7990000000000013 5.4462500000000036 1.0420500000000004 0.0042138114847626315 4.0454629629629641 1.0000000180025095e-35 2.5000000000000004 -1.4206000000000001 10.607644537483656 82.487203602127209 1.0000000180025095e-35 -1.325 1.270979020979021 10.587221383447229 11.701434156501199 1.0000000180025095e-35 0.26897031622750095 0.44651002624307312 10.070709006220573 5.8175418094404625 -2.6033279990236826 2.5000000000000004 7.195416468454046 3.5000000000000004 5.867563443603645 5.8942346331917603 1.1144844919914267
decision_type=2 2 2 2 2 2 2 2 2 2 2 2 2 2 2 2 2 2 2 10 8 2 2 2 2 2 2 2 2 2
left_child=2 3 8 13 25 16 -5 -8 10 -10 22 17 23 26 15 -12 -4 18 29 -20 24 -13 -1 -6 -9 -3 -2 -15 -29 -7
right_child=1 4 5 6 12 11 7 20 9 -11 14 21 -14 27 -16 -17 -18 -19 19 -21 -22 -23 -24 -25 -26 -27 -28 28 -30 -31
leaf_value=-0.036904245097604059 0.012063262071947243 0.045814865247859639 -0.027771894323094196 -0.023745684663299474 0.033036065669730309 -0.0096425328787881886 0.040824381473053874 0.02507063645351168 -0.038258488050528935 -0.095542764134945418 -0.014454122909655174 -0.01939530265517533 0.10049807552780424 -0.0062373025197199356 -0.047370313886190868 -0.039536948152637301 -0.011961944732741502 0.014033199938085789 -0.016907114621821682 -0.0045004130739651552 -0.0086933800779903925 -0.057635118148249134 -0.073087102463168491 0.069835057811430803 0.012543637730387948 0.013909652814269067 -0.019414890176900054 0.012366394910468655 -0.014458423705629843 0.031307774541034762
leaf_weight=27 487 245 479 20 20 20 113 504 21 31 75 75 35 281 225 129 152 52 486 444 30 23 62 181 223 25 23 172 46 28
leaf_count=27 487 245 479 20 20 20 113 504 21 31 75 75 35 281 225 129 152 52 486 444 30 23 62 181 223 25 23 172 46 28
internal_value=0 0.0219703 -0.0226872 0.012874 0.0561081 -0.0151806 0.0216969 0.0227416 -0.0458521 -0.0724087 -0.0431862 -0.0102676 0.071264 0.00509169 -0.0392602 -0.0303153 -0.0239635 -0.00854519 -0.00974568 -0.0109839 0.0200423 -0.02837 -0.0621103 0.0661735 0.0212281 0.0428607 0.0106437 -0.000582664 0.00670611 0.0142451
internal_weight=0 2405 2329 1899 506 1759 890 870 570 52 518 1128 236 1009 429 204 631 1030 978 930 757 98 89 201 727 270 510 499 218 48
internal_count=4734 2405 2329 1899 506 1759 890 870 570 52 518 1128 236 1009 429 204 631 1030 978 930 757 98 89 201 727 270 510 499 218 48
shrinkage=0.05


Tree=24
num_leaves=31
num_cat=0
split_feature=113 113 113 113 113 113 1 142 45 56 93 10 17 80 61 79 115 95 10 98 48 49 18 31 83 3 11 31 97 115
split_gain=853.646 234.596 182.843 41.3917 40.751 32.7636 16.2583 15.7395 14.1607 13.0062 12.9655 14.0364 12.9512 12.8773 12.5834 12.2455 12.7486 12.0249 11.8053 11.7118 11.6886 11.5209 10.5261 9.84331 9.3384 8.98989 8.82815 8.61731 11.4303 12.4302
threshold=2.5682000000000014 0.83225000000000016 5.076700000000006 1.8053500000000002 -0.11514999999999923 3.9015000000000022 -2.8291437153565129 1.0000000180025095e-35 14.497328606464876 77.521232108962366 14.395596576593601 0.32727847416457112 1.192775932754359 11.627121614499716 9.6555689675844558 24.564093886905614 1.0000000180025095e-35 0.62202380952380965 0.38264742763773851 1.0000000180025095e-35 11.466974410392401 12.598860354717361 673.61434187977704 -2.0599999999999992 10.086873435092476 0.031372170781893034 -0.49676438664928385 -1.9949999999999999 2.5000000000000004 1.0000000180025095e-35
decision_type=2 2 2 2 2 2 2 2 2 2 2 10 2 2 2 2 2 2 8 2 2 2 2 2 2 2 10 2 2 2
left_child=1 4 5 8 15 7 -4 12 10 -8 11 19 -2 -14 27 16 23 -16 -15 -3 -12 24 -7 -1 -5 -24 -13 -6 -29 -30
right_child=2 3 6 21 14 22 9 -9 -10 -11 20 26 13 18 17 -17 -18 -19 -20 -21 -22 -23 25 -25 -26 -27 -28 28 29 -31
leaf_value=-0.020879273421385073 -0.019858914829092102 0.014412405926056885 0.029229788145360848 0.00097955400411637488 -0.0008214896417815577 0.040227308485698526 0.064047963827189233 0.0043287877118268958 0.025854283159909147 0.097958431858569395 -0.063156250163557984 0.023651535623151088 0.015467761001664769 0.031922867205444606 -0.020780517412694516 -0.0094976920634508143 -0.079838284268043944 0.017628849484026432 -0.0015955100157137574 -0.016038466106637131 -0.02134884750447804 -0.00646697377784202 -0.0088735443912446501 -0.049585983972065151 0.013330539539162965 0.028342988223194816 -0.00471535336310357 -0.02964756306449606 -0.036910134861962152 -0.085392857491970064
leaf_weight=33 20 33 30 405 22 241 243 207 24 32 21 31 445 279 135 20 32 24 29 732 82 281 20 314 246 86 238 370 39 20
leaf_count=33 20 33 30 405 22 241 243 207 24 32 21 31 445 279 135 20 32 24 29 732 82 281 20 314 246 86 238 370 39 20
internal_value=0 -0.0154005 0.0292722 -0.0058534 -0.0352043 0.0212487 0.064181 0.0165737 -0.0121533 0.0679939 -0.0129556 -0.0112704 0.0198528 0.0209075 -0.0270775 -0.0476286 -0.0496407 -0.0149829 0.0287669 -0.0147249 -0.0298727 0.00199443 0.0344519 -0.046856 0.00564675 0.021321 -0.00144631 -0.0313415 -0.0329066 -0.053345
internal_weight=0 3102 1632 2093 1009 1327 305 980 1161 275 1137 1034 773 753 610 399 379 159 308 765 103 932 347 347 651 106 269 451 429 59
internal_count=4734 3102 1632 2093 1009 1327 305 980 1161 275 1137 1034 773 753 610 399 379 159 308 765 103 932 347 347 651 106 269 451 429 59
shrinkage=0.05


Tree=25
num_leaves=31
num_cat=0
split_feature=113 113 113 113 113 113 10 1 56 43 18 113 40 52 17 67 34 12 13 73 13 1 174 42 97 180 50 35 67 80
split_gain=770.918 190.059 186.013 36.4626 36.1317 28.1592 19.1383 14.8507 14.3081 13.6787 13.6062 12.5414 11.987 11.6392 11.5317 10.7874 14.1423 12.5042 10.2447 11.5704 10.1539 10.2961 10.0885 9.70007 9.65985 9.40568 9.24782 9.22017 8.78009 8.77034
threshold=2.3922000000000008 0.68716999999999984 4.8896000000000042 3.295250000000002 1.5755000000000001 -0.32369999999999899 0.44651002624307312 -2.8291437153565129 41.644518620754575 1.0000000180025095e-35 668.58185950733991 7.0381000000000062 11.701434156501199 6.0846300888861498 1.7107811510722764 1.0000000180025095e-35 7.6060045023550638 0.480001414754962 0.33206963614611412 22.245000000000005 0.32633093058983198 -0.45742000503905217 1.0000000180025095e-35 11.507606176038502 4.5000000000000009 1.0000000180025095e-35 16.329141123449265 3.4904629529922002 5.4121370375941522 38.504996546978795
decision_type=2 2 2 2 2 2 8 2 2 2 2 2 2 2 2 2 2 8 8 2 10 2 2 2 2 2 2 2 2 2
left_child=1 5 3 13 12 15 10 -4 23 18 14 -9 20 26 -5 16 17 -1 19 -6 28 -22 27 24 -7 -15 -2 -11 -3 -16
right_child=2 4 7 6 9 8 -8 11 -10 22 -12 -13 -14 25 29 -17 -18 -19 -20 -21 21 -23 -24 -25 -26 -27 -28 -29 -30 -31
leaf_value=-0.049806538738335515 0.022356693007180239 -0.022910020656904187 0.028110549542488473 0.0014628104133797544 0.010034060718190511 -0.030956096218860259 -0.019219312833791431 0.058579612864276112 0.0091061601648107175 -0.012809186320909174 0.01639537830141195 0.085494812985636159 0.0088566217580451998 0.0052578796975999388 0.03280336075962189 -0.03253625162980623 -0.019586313781993731 -0.077368252868192239 0.01796084076029314 -0.0072177507885216362 -0.011764520141673653 0.015397009582713592 0.0092377147890926742 -0.0089366784940163296 -0.064874212917956448 0.030699868099047591 -0.013003500299528244 0.0062725853285213046 -0.011215953650330889 0.062722180181970968
leaf_weight=148 245 455 33 28 184 458 22 236 24 379 178 53 52 530 423 90 28 57 114 206 185 43 84 48 22 39 20 76 248 26
leaf_count=148 245 455 33 28 184 458 22 236 24 379 178 53 52 530 423 90 28 57 114 206 185 43 84 48 22 39 20 76 248 26
internal_value=0 -0.0160386 0.0253836 0.0180307 -0.00762808 -0.0355127 0.0266516 0.0598871 -0.0286513 -0.00114578 0.0281923 0.0635156 -0.014506 0.0110327 0.0325945 -0.0472385 -0.0529175 -0.05747 0.00477569 0.000921565 -0.0158109 -0.00664195 -0.00668274 -0.0303676 -0.0325107 0.00700171 0.019688 -0.0096219 -0.0187847 0.0345359
internal_weight=0 2901 1833 1511 2026 875 677 322 552 1043 655 289 983 834 477 323 233 205 504 390 931 228 539 528 480 569 265 455 703 449
internal_count=4734 2901 1833 1511 2026 875 677 322 552 1043 655 289 983 834 477 323 233 205 504 390 931 228 539 528 480 569 265 455 703 449
shrinkage=0.05


Tree=26
num_leaves=31
num_cat=0
split_feature=113 113 113 113 113 113 3 198 0 115 97 42 113 20 49 71 10 188 49 57 75 51 67 45 10 12 75 98 97 83
split_gain=697.148 222.231 121.1 38.6144 31.5575 22.7171 14.4297 14.4082 13.9826 12.9536 13.8467 12.7775 15.3821 12.5793 10.5547 9.81754 9.49446 9.35336 9.20025 13.151 9.73034 9.03893 8.93631 9.04902 8.79418 8.70204 8.67112 8.30439 7.95105 7.91205
threshold=1.9363000000000004 4.2444500000000032 0.22774999999999992 2.7990000000000013 6.1639900000000063 1.1681000000000001 0.0042138114847626315 2.5000000000000004 4.5899220521541961 1.0000000180025095e-35 2.5000000000000004 11.507606176038502 -1.8705499999999973 15.170092119415632 5.6302454023764152 10.328609659741831 0.44956641018930593 1.0000000180025095e-35 12.409223497054535 11.329215106023222 14.958223713295315 9.642922229266178 16.806109120631906 6.8398442695337138 0.12913050622692929 0.39933179379043965 9.5430084053295854 3.5000000000000004 2.5000000000000004 5.3013366624845206
decision_type=2 2 2 2 2 2 2 2 2 2 2 2 2 2 2 2 8 2 2 2 2 2 2 2 8 10 2 2 2 2
left_child=2 3 9 14 7 13 -5 27 -8 11 -11 12 -1 17 29 18 25 26 -7 -20 -21 -17 23 -14 -6 -10 28 -3 -4 -2
right_child=1 4 5 6 24 15 8 -9 16 10 -12 -13 22 -15 -16 21 -18 -19 19 20 -22 -23 -24 -25 -26 -27 -28 -29 -30 -31
leaf_value=-0.06964925691485406 0.0037338198363758932 0.042129558003045665 -0.019147334795962718 -0.023362389709800483 0.082302201429351435 -0.0031862867972255573 0.034006295528540273 0.076141680318575655 0.011736239215722033 -0.031968433795762911 -0.084552435600949882 -0.015841755879321889 -0.040669576096714836 0.017784057218920103 0.00066198900900379747 -0.01021938493090252 -0.016326621236900488 -0.037199835006245657 -0.028813994860713732 -0.010190008064524296 0.02696717939572409 -0.042301005311310293 -0.0054038416416872116 -0.0069389900636105317 0.057540874859724922 0.022865483227712043 -0.011298477250861048 0.024010522165609633 -0.035143909142895162 0.018901927667054615
leaf_weight=40 169 247 316 20 61 637 141 26 323 21 31 62 374 22 665 52 21 76 98 148 20 38 21 21 87 385 249 85 103 175
leaf_count=40 169 247 316 20 61 637 141 26 323 21 31 62 374 22 665 52 21 76 98 148 20 38 21 21 87 385 249 85 103 175
internal_value=0 0.0188819 -0.019498 0.0110363 0.0483262 -0.0130078 0.0186279 0.0402977 0.0195932 -0.0395267 -0.0633166 -0.0371386 -0.0400342 -0.0194773 0.00434002 -0.00801718 0.0168054 -0.0205792 -0.00644763 -0.0142577 -0.00576653 -0.023765 -0.0371866 -0.0388763 0.0677466 0.0177882 -0.0186882 0.0374906 -0.0230797 0.0114502
internal_weight=0 2405 2329 1899 506 1759 890 358 870 570 52 518 456 766 1009 993 729 744 903 266 168 90 416 395 148 708 668 332 419 344
internal_count=4734 2405 2329 1899 506 1759 890 358 870 570 52 518 456 766 1009 993 729 744 903 266 168 90 416 395 148 708 668 332 419 344
shrinkage=0.05


Tree=27
num_leaves=31
num_cat=0
split_feature=113 113 113 113 113 113 68 1 58 142 83 97 49 58 17 80 40 52 12 78 13 104 73 79 13 1 10 84 66 67
split_gain=630.355 173.921 135.521 37.421 25.4292 23.5652 14.3317 12.7415 12.5307 12.2971 11.7301 10.9975 10.7183 10.7036 10.6541 11.8454 10.6214 10.4202 12.0222 9.86564 11.0054 9.76626 9.75142 9.04894 8.99588 9.15906 8.87409 8.27491 7.97276 7.70138
threshold=2.5682000000000014 0.68716999999999984 5.076700000000006 1.5755000000000001 3.8301500000000033 -0.80614999999999959 39.524154107091981 -1.6532891366423108 42.408826445576175 1.0000000180025095e-35 19.302972976441051 4.5000000000000009 12.409223497054535 1.0000000180025095e-35 1.192775932754359 11.745036147294867 11.701434156501199 17.540922651857688 0.47971038692131057 18.954442697955034 0.32633093058983198 1.0000000180025095e-35 28.640000000000004 6.2589248159660977 0.32633093058983198 -0.45742000503905217 0.38264742763773851 16.267400579237449 6.4827890144192937 5.4121370375941522
decision_type=2 2 2 2 2 2 2 2 2 2 2 2 2 2 2 2 2 2 10 2 8 2 2 2 10 2 8 2 2 2
left_child=1 5 4 16 9 13 11 27 -9 14 12 17 19 -1 -2 -16 24 18 -7 20 -5 -15 -6 -14 29 28 -17 -4 -26 -3
right_child=2 3 7 10 22 6 -8 8 -10 -11 -12 -13 23 21 15 26 -18 -19 -20 -21 -22 -23 -24 -25 25 -27 -28 -29 -30 -31
leaf_value=-0.062886889813386873 -0.019222959885373713 -0.020994996085953593 0.0069970604777336125 -0.0014275915830741564 0.037409987830798623 -0.027428878846034555 0.012158652947453615 0.081284886036279078 0.053996963338816872 0.0027607970960400624 0.010691567261218341 -0.058440361681083845 -0.00042864083372753307 -0.0082411983643065814 0.012500800073569365 0.028159616511989366 0.0088876576646446034 -0.014806582196074169 -0.049201487950980671 -0.030397599495093647 0.01309595676191685 -0.04452775077168214 0.021441346244189197 -0.017517272965250803 -0.0028033080711342521 0.015084410932586466 -0.002983305944129825 0.049106374439517306 -0.024471111889138367 -0.010042818009030945
leaf_weight=69 20 455 20 521 184 410 22 53 204 198 211 30 139 22 432 269 52 129 75 24 174 118 199 175 119 43 25 28 66 248
leaf_count=69 20 455 20 521 184 410 22 53 204 198 211 30 139 22 432 269 52 129 75 24 174 118 199 175 119 43 25 28 66 248
internal_value=0 -0.0132339 0.0251541 -0.00581277 0.0182465 -0.0321217 -0.0275251 0.0552079 0.0596244 0.0138378 -5.12896e-05 -0.0288808 -0.00224562 -0.0467693 0.0167778 0.0177696 -0.013104 -0.0274365 -0.0307958 0.00112014 0.00220852 -0.0388256 0.029113 -0.00995256 -0.0143323 -0.00570201 0.0255114 0.0315608 -0.0105334 -0.0171314
internal_weight=0 3102 1632 2227 1327 875 666 305 257 944 1244 644 1033 209 746 726 983 614 485 719 695 140 383 314 931 228 294 48 185 703
internal_count=4734 3102 1632 2227 1327 875 666 305 257 944 1244 644 1033 209 746 726 983 614 485 719 695 140 383 314 931 228 294 48 185 703
shrinkage=0.05


Tree=28
num_leaves=31
num_cat=0
split_feature=113 113 113 113 113 113 10 18 198 31 32 37 20 36 188 49 50 17 45 93 6 47 28 68 37 142 47 31 93 30
split_gain=570.725 167.246 111.226 26.869 26.3704 24.9332 14.0993 12.1109 12.0145 11.7068 12.8582 11.5376 18.6041 16.0862 11.1319 10.8251 10.6899 10.4042 9.71984 9.52499 10.0366 9.18173 8.86585 9.43016 8.75262 8.07876 8.07477 7.96801 7.95077 7.76075
threshold=2.0581100000000006 4.2444500000000032 0.22774999999999992 6.1639900000000063 2.9825000000000013 1.2769400000000002 0.44956641018930593 685.65149048752028 2.5000000000000004 -1.4599999999999995 290888.05514633463 15.343257769336878 5.7451958678665678 96.200706445023116 1.0000000180025095e-35 5.3831434924653569 17.207036063454829 1.6602450248376204 14.497328606464876 1.1193069727891161 174.13999999999999 24.27029479303258 6.0045179165951525 32.224952013163154 10.778920435056143 1.0000000180025095e-35 91.197877739091112 -0.75499999999999989 0.63666666666666694 7.6060833696073669
decision_type=2 2 2 2 2 2 8 2 2 2 10 2 2 2 2 2 2 2 2 2 2 2 2 2 2 2 2 2 2 2
left_child=2 4 11 8 14 9 7 22 29 10 -4 12 -1 -13 16 -7 25 -17 21 20 -14 -19 23 -6 -11 -2 -5 -26 -15 -3
right_child=1 3 5 26 6 15 -8 -9 -10 24 -12 13 19 28 -16 17 -18 18 -20 -21 -22 -23 -24 -25 27 -27 -28 -29 -30 -31
leaf_value=-0.040509093947919836 0.011742891396770023 0.035909806081821254 -0.011973378772990401 0.056823513483789972 0.020702769297302789 0.0024816670689783919 -0.023024743054993455 0.0065473435236744482 0.068976059097510131 -0.018762167402324975 0.028471489836062704 -0.059731494836659751 -0.022430098265711521 -0.018514565778049556 -0.011407674339208699 -0.041098824702203274 -0.0084074521193542757 -0.010960690861067247 0.025088694744574078 -0.028903502389698861 0.014652622813850436 0.0056136710672476092 0.0011376896017599245 0.036215132248152003 -0.027447316042902271 -0.00034066140505352189 0.090293410562333615 -0.064045821167528633 -0.044254889352614006 0.0074557957167808832
leaf_weight=194 660 306 306 127 372 304 20 142 26 476 21 99 37 55 86 24 96 603 22 83 36 97 43 133 58 175 21 20 66 26
leaf_count=194 660 306 306 127 372 304 20 142 26 476 21 99 37 55 86 24 96 603 22 83 36 97 43 133 58 175 21 20 66 26
internal_value=0 0.0183731 -0.0164043 0.0436529 0.0109662 -0.0106755 0.0183608 0.0195604 0.0362448 -0.0168781 -0.009376 -0.0358118 -0.0301719 -0.0447843 0.00580385 -0.0054712 0.00739375 -0.00871205 -0.00763548 -0.0173167 -0.00414273 -0.00866396 0.0229324 0.0247882 -0.0213062 0.00921041 0.0615726 -0.0368315 -0.0325547 0.0336815
internal_weight=0 2233 2501 506 1727 1931 710 690 358 881 327 570 350 220 1017 1050 931 746 722 156 73 700 548 505 554 835 148 78 121 332
internal_count=4734 2233 2501 506 1727 1931 710 690 358 881 327 570 350 220 1017 1050 931 746 722 156 73 700 548 505 554 835 148 78 121 332
shrinkage=0.05


Tree=29
num_leaves=31
num_cat=0
split_feature=113 113 113 113 47 188 97 115 80 66 47 18 4 40 97 188 115 97 45 113 64 31 27 10 68 10 18 3 49 47
split_gain=515.893 165.445 89.8111 34.3255 20.2362 18.3666 19.9638 29.5185 19.1772 14.7599 14.2397 14.4444 11.4626 11.4382 11.3897 11.2494 11.1613 11.7827 11.1888 11.0537 10.0357 10.066 9.49059 9.38985 9.02838 8.9496 7.89486 8.00052 7.56853 7.09856
threshold=1.9363000000000004 3.9015000000000022 0.22774999999999992 5.076700000000006 25.436211519335789 1.0000000180025095e-35 2.5000000000000004 1.0000000180025095e-35 32.237462465539132 4.7419427035088049 5.185024176390157 190.80885607979351 0.68559373288375369 1.0000000180025095e-35 2.5000000000000004 1.0000000180025095e-35 1.0000000180025095e-35 2.5000000000000004 10.19872647532142 -0.80614999999999959 7.5949166867671254 -0.55499999999999994 2.2309449985040435 0.23080063551095015 20.743594475304757 0.16550611585425756 673.61434187977704 0.031372170781893034 25.638668894706061 17.710665186178627
decision_type=2 2 2 2 2 2 2 2 2 2 2 2 2 2 2 2 2 2 2 2 2 2 2 10 2 10 2 2 2 2
left_child=2 4 16 26 9 6 8 25 10 15 11 -4 24 22 20 -2 18 -18 19 -1 23 -22 -5 -11 -6 -8 -3 -28 -7 -21
right_child=1 3 5 13 12 28 7 -9 -10 14 -12 -13 -14 -15 -16 -17 17 -19 -20 29 21 -23 -24 -25 -26 -27 27 -29 -30 -31
leaf_value=-0.043156234190318284 0.011975875470986679 0.031992258387955906 -0.024588104377261263 0.039498240949416702 0.012957600277196616 -0.023615715919016317 -0.044285206639995946 -0.071745791217243227 0.041392513918690386 -0.0048066240386106076 -0.0039997963684760924 -0.0072241752837752657 0.0066026499745777054 0.019528021650122747 -0.027919128409973005 -0.011186776216283946 -0.027186284161039759 -0.075693279540827205 0.0030876815827055415 -0.029832036721215038 -0.0033459430091253677 -0.032575021730735898 0.059376773829005226 0.013958222341723739 0.027020478271269462 -0.013211408135972528 -0.012866008066630458 0.022242936470307586 -0.056133250430935915 -0.0015366778320943318
leaf_weight=182 470 241 211 88 250 121 26 27 20 120 843 277 284 28 41 59 21 31 22 290 131 38 189 150 210 213 20 86 21 24
leaf_count=182 470 241 211 88 250 121 26 27 20 120 843 277 284 28 41 59 21 31 22 290 131 38 189 150 210 213 20 86 21 24
internal_value=0 0.0162429 -0.0167729 0.0377462 0.00824505 -0.0111837 -0.0096696 -0.0221902 -0.00720441 0.00363204 -0.00793465 -0.0147319 0.0145011 0.0499831 -0.00271649 0.00939252 -0.0340212 -0.0561039 -0.0318044 -0.033352 -0.000362713 -0.00991816 0.0530616 0.00561829 0.0193776 -0.0165918 0.0269905 0.0156186 -0.0284246 -0.0276693
internal_weight=0 2405 2329 652 1753 1759 1617 266 1351 1009 1331 488 744 305 480 529 570 52 518 496 439 169 277 270 460 239 347 106 142 314
internal_count=4734 2405 2329 652 1753 1759 1617 266 1351 1009 1331 488 744 305 480 529 570 52 518 496 439 169 277 270 460 239 347 106 142 314
shrinkage=0.05


Tree=30
num_leaves=31
num_cat=0
split_feature=113 113 113 113 17 47 113 93 17 34 12 42 80 47 40 43 180 115 48 47 13 151 0 83 113 42 106 37 10 66
split_gain=469.955 128.877 99.7595 28.6453 17.8565 18.0964 17.1555 12.0035 13.5332 11.2254 17.9974 11.6797 11.2118 11.0109 11.0055 10.6914 11.3663 10.0405 9.55361 9.4355 9.28915 9.87011 8.92017 8.7047 8.67627 8.25247 7.79192 7.62887 7.55347 8.72208
threshold=2.5682000000000014 0.99775000000000003 4.8896000000000042 -0.074629999999999905 1.192775932754359 30.595070318753589 1.8053500000000002 1.1535416666666667 3.2782845521357618 7.6060045023550638 0.47188099709374537 6.0501679125651737 23.919274924514706 6.4998786532622548 1.0000000180025095e-35 1.0000000180025095e-35 1.0000000180025095e-35 1.0000000180025095e-35 24.396651565524284 75.091575746927035 0.26334850170960034 1.0000000180025095e-35 3.6760449341773751 19.302972976441051 -1.8705499999999973 6.0207896759624555 1.5000000000000002 18.26718746619601 0.22928979828315194 3.9538415169841117
decision_type=2 2 2 2 2 2 2 2 2 2 10 2 2 2 2 2 2 2 2 2 10 2 2 2 2 2 2 2 10 2
left_child=1 3 4 9 -2 15 7 20 25 10 24 -11 -7 28 19 18 27 -15 -6 -4 22 -22 -3 -8 -1 26 -9 -17 -5 -30
right_child=2 6 14 13 5 12 23 8 -10 11 -12 -13 -14 17 -16 16 -18 -19 -20 -21 21 -23 -24 -25 -26 -27 -28 -29 29 -31
leaf_value=-0.062925743489038385 -0.025432722523020437 0.014848250261103899 0.045006996358588208 -0.03086204635153704 0.0063275471940096792 0.019566422764283886 -0.00097666071864808599 -0.013893403230587652 -0.052083910944370128 -0.035738421856824847 -0.058182272713544758 0.011280677631497385 0.037576644778108376 -0.0081521089135487036 0.019298207805012214 0.0046521767538615678 0.036303422531044044 -0.036256879692276318 0.024779269026114128 0.066888483282592559 0.0045988011346955113 -0.021352756897076258 -0.01179064004753537 0.011369662577900189 -0.029504767800464706 0.0065803150390274824 -0.043299319194974727 -0.024575804511550815 -0.0046591562359223522 -0.024812783160871876
leaf_weight=21 26 34 226 203 113 511 756 136 26 28 86 25 104 271 33 320 27 36 185 63 287 42 415 176 258 40 27 24 83 152
leaf_count=21 26 34 226 203 113 511 756 136 26 28 86 25 104 271 33 320 27 36 185 63 287 42 415 176 258 40 27 24 83 152
internal_value=0 -0.0114268 0.0217192 -0.0245862 0.0155904 0.0164211 -0.00353382 -0.00805838 -0.0181203 -0.0350622 -0.0381845 -0.0135596 0.0226121 -0.0187083 0.0466534 0.0107298 0.00506488 -0.0114478 0.0177825 0.049777 -0.0050967 0.00128584 -0.00977344 0.00135483 -0.0320203 -0.0137703 -0.0187643 0.00261302 -0.0237974 -0.0176947
internal_weight=0 3102 1632 1163 1310 1284 1939 1007 229 418 365 53 615 745 322 669 371 307 298 289 778 329 449 932 279 203 163 344 438 235
internal_count=4734 3102 1632 1163 1310 1284 1939 1007 229 418 365 53 615 745 322 669 371 307 298 289 778 329 449 932 279 203 163 344 438 235
shrinkage=0.05


Tree=31
num_leaves=31
num_cat=0
split_feature=113 113 113 113 113 113 1 56 49 26 37 104 74 12 83 113 18 38 50 84 47 12 42 12 126 4 31 66 95 37
split_gain=424.168 107.99 97.763 22.0711 18.6786 16.0436 12.5203 12.0181 11.7638 10.9018 11.8769 10.1788 10.455 10.4357 9.74541 9.19045 8.87566 9.68087 8.53344 8.23045 8.14517 8.99959 8.04919 9.20932 9.38165 7.58404 7.60146 7.57028 11.7396 7.86503
threshold=2.4534000000000007 0.68716999999999984 4.8082500000000055 1.5051000000000001 3.5632500000000022 -0.80614999999999959 -2.8291437153565129 41.644518620754575 12.409223497054535 4.7039948072374758 4.6806678727242259 1.5000000000000002 9.7995471799495615 0.49612565981262752 6.5755362865776936 6.7530500000000027 203.40322634483735 5.8175418094404625 5.6442185428336265 5.1026046015708735 20.095895264261195 0.51599035308458363 11.507606176038502 0.47971038692131057 1.0000000180025095e-35 0.67980485282823 1.0000000180025095e-35 4.7419427035088049 0.85357142857142865 4.6806678727242259
decision_type=2 2 2 2 2 2 2 2 2 2 2 2 2 10 2 2 2 2 2 2 2 8 2 10 2 2 2 2 2 2
left_child=1 5 4 20 18 16 -4 22 11 -6 -11 13 -13 14 -5 -8 -1 19 -2 -18 21 27 23 -7 -25 26 -20 29 -29 -3
right_child=2 3 6 8 9 7 15 -9 -10 10 -12 12 -14 -15 -16 -17 17 -19 25 -21 -22 -23 -24 24 -26 -27 -28 28 -30 -31
leaf_value=-0.053193609055939728 0.014181166802338 -0.020361471714353877 0.016129722627433573 -0.0039896558448326291 0.031693850574748855 -0.022843238603409453 0.042198839550937804 0.0090013876673765477 -0.0082843358198421615 -0.0059874253858830419 0.020479482600457996 -0.002630655141483358 -0.036667109588161113 0.017863059353189378 0.0089207281860608396 0.062973755295725839 -0.033220157293336737 -0.039734316297402289 0.012984474441417003 0.011047556934257349 0.0012416197240651987 -0.046288838293403391 -0.0056274176795374263 -0.050328300112971305 -0.016606345077355703 -0.0026051275902136697 -0.019141750596463683 -0.015318134186649257 -0.052305230838449103 -0.0039602009807963049
leaf_weight=68 492 95 37 323 175 486 233 29 379 51 251 91 30 123 267 69 21 99 232 21 112 20 55 66 30 200 20 319 23 317
leaf_count=68 492 95 37 323 175 486 233 29 379 51 251 91 30 123 267 69 21 99 232 21 112 20 55 66 30 200 20 319 23 317
internal_value=0 -0.0115136 0.0194553 -0.00536197 0.0136996 -0.0262704 0.0435821 -0.0224777 -0.000980078 0.021764 0.0160099 0.00233924 -0.0110694 0.00461477 0.00185284 0.0469454 -0.0383564 -0.0312009 0.00962465 -0.0110863 -0.0113611 -0.0131848 -0.0239108 -0.0256386 -0.0397902 0.00466491 0.0104348 -0.0123067 -0.0178056 -0.00774205
internal_weight=0 2974 1760 2099 1421 875 339 666 1213 477 302 834 121 713 590 302 209 141 944 42 886 774 637 582 96 452 252 754 342 412
